{"layers":[{"out_depth":1,"out_sx":64,"out_sy":64,"layer_type":"input"},{"sx":5,"sy":5,"stride":1,"in_depth":1,"out_depth":8,"out_sx":64,"out_sy":64,"layer_type":"conv","l1_decay_mul":0,"l2_decay_mul":1,"pad":2,"filters":[{"sx":5,"sy":5,"depth":1,"w":[0.4708729750341803,-0.09461240518413859,0.16167227183483832,0.1626687172724981,0.04743895203198935,0.6188198102229454,0.21037466257518078,-0.07353727502938431,-0.3103109787340792,-0.2327813026319662,-0.2395153553351688,0.12081445138663797,0.025458083803442257,0.16100226548267926,0.6429533383272842,0.18154023129387686,0.13191535334885318,-0.036184516350364085,-0.21170320127581674,-0.22611189865824238,-0.27035776221953745,0.029657996536791204,0.01050750676924908,0.14220887363761558,0.4178613476178644]},{"sx":5,"sy":5,"depth":1,"w":[-0.09549283783583876,-0.6343118416970307,0.09260978203016507,-0.19459073223162976,-0.04126785883041003,0.34606504974649377,-0.49872300177758666,-0.4331128159098585,-0.24325358122653692,-0.2278104988533704,0.17896644915185844,0.06928198624759106,0.011467748277261847,-0.04472204110752832,-0.45658092852376214,-0.8054234338156349,0.3019052153814052,0.30337101662398924,0.05938712326518532,-0.009861295171589861,0.0715450416469854,-0.2813526418530864,0.28877810138297966,0.12330699041593308,0.40566625222042985]},{"sx":5,"sy":5,"depth":1,"w":[-0.2417182576778964,-0.2881581974250979,0.4442121876926569,0.21305066888469357,0.3007951552349177,-0.2818068402367036,-0.18597619768435514,0.06825288734470206,-0.28163148498685553,0.2562432703042481,-0.4313312215045802,0.01676316489672971,0.18830720028531855,0.15457484517784914,0.14022059884905647,-0.1440276657481206,0.03145410607602772,-0.45136990446721037,0.2609081890328528,-0.0668607616731755,-0.32534576862146297,-0.4385870441904438,-0.034980479995370926,0.03720412805633421,0.16580148922837315]},{"sx":5,"sy":5,"depth":1,"w":[0.10122464226724433,0.11138378576557453,-0.05703576294777745,0.11283276805809518,-0.08483381419155081,0.3855951592871435,0.22913640526583362,-0.2292294067249589,0.07779607842642605,-0.07954136355689594,-0.16193943952331066,-0.1078674734059621,-0.028431656037019706,-0.34146502501075815,-0.08494515057345582,-0.2953939397403669,0.09445845041167003,-0.1482516522758512,-0.10765489655505277,-0.02611379736482981,-0.1556434555909609,-0.19404210489288537,0.07062778955279975,0.04032073918687722,-0.21413293926211577]},{"sx":5,"sy":5,"depth":1,"w":[0.0007686784495351739,0.16039434381760184,-0.20744015754898112,-0.19464264223782507,-0.29286107865697325,0.03951129535121245,0.1538036159138874,-0.10218170005162418,-0.01671010831002799,-0.12909156485282716,0.595080886041401,-0.22239356926564485,-0.13040267509084674,-0.3003020707865328,-0.123818436058048,-0.043110749213072556,-0.19712674747549566,-0.11252147154196215,0.20188509208835748,0.12187833752043295,-0.12594292668433688,0.07649282625395783,-0.32775722524924134,0.2685203778990036,-0.15567296846238682]},{"sx":5,"sy":5,"depth":1,"w":[-0.3876502969965317,-0.16627741937115537,0.05530330093814458,0.04596140129810238,0.05201333870357703,0.034665188364699166,-0.17618535696345666,-0.06632499771558201,-0.23723549274468003,0.1770746091897738,-0.19346352015394136,-0.07450919114110258,-0.0682537868904931,0.02339923230645609,-0.16900078197224114,-0.3775398004685049,0.06384155699805648,-0.055006574515900075,0.14668615547950734,-0.10543862901932846,-0.049144568994388495,0.0005216786750347141,-0.4014479518387242,0.058107527271022766,-0.3593562653633026]},{"sx":5,"sy":5,"depth":1,"w":[-0.1041376258133899,0.2764393110282536,-0.1533825050152862,-0.06750314912860637,0.015269518918845017,-0.13940680319688248,0.22047958665043066,-0.08074721277423846,0.0962446834564575,0.3670093504547571,-0.16685559438771336,0.33841106131245213,0.10328389551139133,0.2504211304523275,0.09172894983207798,-0.3293438568139408,0.023781209220143106,0.0965147710491542,0.2902651688438824,-0.17383767405731243,-0.10959733475659139,-0.03075189251619804,0.1867271934304268,-0.20397493977369077,-0.23589572371915657]},{"sx":5,"sy":5,"depth":1,"w":[0.15362380366972697,0.07192688486198957,0.11107627103792718,-0.14667436873126455,-0.08101764692607771,0.07771451172950829,0.1253300374664644,-0.18723087530160173,0.34663884653669047,-0.4371655942367161,0.09284972225892316,-0.2986259856826112,-0.04417795796185704,0.022029768678365546,-0.27238266524068006,-0.3460078531777446,-0.01906380093758436,-0.07988445990303518,0.04472163186988927,-0.4686821928667786,0.04427922558239892,-0.05414260668922506,-0.1818450156278629,-0.07007015595124479,0.12403715169751145]}],"biases":{"sx":1,"sy":1,"depth":8,"w":[-0.049564037674131964,0.1305206110593793,0.012024016570616173,0.1355717729926148,0.042375397804655164,0.22734505772954194,-0.04885521441632632,0.16238161050310587]}},{"out_depth":8,"out_sx":64,"out_sy":64,"layer_type":"relu"},{"sx":2,"sy":2,"stride":2,"in_depth":8,"out_depth":8,"out_sx":32,"out_sy":32,"layer_type":"pool","pad":0},{"sx":5,"sy":5,"stride":1,"in_depth":8,"out_depth":16,"out_sx":32,"out_sy":32,"layer_type":"conv","l1_decay_mul":0,"l2_decay_mul":1,"pad":2,"filters":[{"sx":5,"sy":5,"depth":8,"w":[0.08163399967946781,-0.06554962654644811,-0.025607603328567288,-0.09185218247275004,-0.10667689980902414,-0.04107642794964107,-0.004975321514217039,-0.067077101818801,0.11937025577821637,-0.05964769802440835,-0.08862782648321968,-0.09109991475464303,-0.12979306093876875,-0.10332682705792468,-0.010846555265105265,-0.05184965146059325,0.12743949500852086,-0.11083832271395241,-0.1360737197481204,-0.16465903820931532,-0.08246125031198784,-0.12738155300362444,0.00960997818964868,-0.022720384085236148,-0.053349320689452646,-0.04921853667739323,-0.18560974515909506,-0.09754194124391759,0.04317887128010776,0.01662757097871123,0.05163651621103374,-0.02850387931088099,0.003864357589611918,0.1067753894715345,-0.1439812599745358,-0.12264133077393369,-0.018444144085927948,-0.1239516621966081,-0.12436599185172305,-0.15163377292277727,-0.0030517488324870376,-0.016282735505433597,0.009382467449697089,-0.04192886284298931,-0.24327856276960522,-0.017490449385736385,-0.05441604615628666,-0.08638916269471424,0.14450150723372587,-0.15756301111211082,-0.02977018491471312,-0.10234517374863697,-0.2851126664872901,0.09107264016386876,0.023077961075048118,-0.1793601917069764,0.03410396200966261,-0.10596373486007535,-0.17169941074398423,0.033711096332320965,0.028855828724950287,-0.07318813050063216,-0.07104062149826454,-0.13299397213867542,-0.0558085344766721,-0.23454580756894813,-0.14628399147796617,-0.08319534633477696,-0.07916351351862508,-0.029625901561323126,0.04124805621510179,-0.06995435625882572,-0.0806052688839551,-0.11403208847628198,-0.09295653136688917,-0.03108906578320291,0.05685019619886101,-0.013991710082244677,-0.21630656105180285,0.08554729695271959,-0.004030972134545498,-0.08914461119354797,0.023257577571476944,-0.09434665959910556,-0.09493114981275758,0.18430625849073248,-0.03819013793448761,-0.12323398217209715,-0.11593200062126634,0.045400929276970564,0.03401168691191239,-0.06910045482537353,-0.09126382685367428,0.15464614825429654,0.0727058996557517,-0.028224632836905086,0.028832107451807355,-0.09465395324089577,0.06877588700745327,-0.011057004273876155,-0.047772674852183616,0.08836126804218304,0.05040888344117272,-0.11298032471754904,0.06563582499092133,-0.07912847970194632,-0.0388546950004847,-0.14655989810688558,-0.07594689246973532,-0.04351764517454235,0.017010642933555857,-0.0662674919471767,-0.06583853992769266,-0.08919831753278534,-0.04097219192854334,-0.008301903114404038,0.05081905502223667,-0.13621932661314035,-0.10518287070897714,-0.09559658143520983,-0.2177640119616408,-0.0780565257006299,0.014257008660273612,0.04904944212638892,-0.07296896177075014,0.07626503104905294,-0.049253035961691456,-0.012473536309705786,-0.11125318211977564,0.031401919263784994,0.1673323697905715,0.059639992183614564,-0.008148782438359,0.20679052025185793,0.11596390032536164,-0.11545143958986868,-0.039380845669307454,-0.1674290967184342,0.13141364743174866,-0.07424580029239411,-0.040464833202086936,0.00504935797869213,0.04330574930037824,-0.16009109787791503,-0.06848690395851958,-0.08014456508811763,0.2495219923530788,-0.10357881111130755,-0.06819032050930139,0.047581783595751485,0.005184853320895722,-0.20605121393405118,-0.002345645396475282,-0.09731910358725465,-0.09925239591394802,-0.19926302861298376,0.05416435904436609,-0.10471816437124896,-0.007377285483988267,-0.05676278454444984,-0.2524251881720398,-0.018637933466255044,-0.09875165055092835,-0.03307106550381191,-0.016161717468335585,0.0022746492375996527,-0.11436735078113118,0.06884416150696221,-0.025366499644929624,-0.02251504442477867,0.0056004733550765054,-0.025896572402667087,-0.0739646031717408,0.08708243892898627,0.015360496770897175,-0.08102856970935804,0.036503801259324224,-0.049716023993685285,0.11670953615988555,-0.09102437800910175,-0.01472317661907071,0.15726089178738506,-0.09492093437816208,-0.04757736792062515,-0.05581077761431505,-0.019608737920350464,0.1593303391095712,-0.0930463378611762,0.035834326768773045,-0.0410484014036871,-0.00853185650577155,-0.110903270486624,-0.00025845211964797723,-0.0980606715995637,0.23774292491420795,-0.13062588110533482,-0.010700145182402143,0.005302154888964515,0.15305014206826653,-0.2638855659843317]},{"sx":5,"sy":5,"depth":8,"w":[0.02049291514665303,0.1809176008501701,-0.08554427246859121,-0.08050264502578838,0.13171175954606346,0.04968670763147107,-0.03691323351141795,-0.02074891629786121,0.01163182029129959,0.2318395081265376,-0.13176234373586826,-0.032738417032380514,0.15868238436457915,-0.07574251498833788,-0.13800441691069443,-0.08999220857307166,-0.0634054327498909,0.12329096607339901,-0.16401856239862167,-0.06319122195296595,0.052439659752976354,0.05111757972669703,-0.11917839141176527,0.06585848210444725,-0.1900588635240999,0.10527086460685403,-0.1513854624054359,-0.04581900072655641,-0.05464409268368827,0.006887451088527367,-0.227086073925521,-0.008732960304210514,-0.16081533281234883,0.037552090895344975,-0.21319680863344742,0.06728393400310936,-0.03083068664007198,0.18950957911408525,-0.09124416811836342,0.12090997943136975,0.08689979443458072,-0.037999525248602326,-0.14728003471649861,-0.16668244262491916,0.013991567274001577,0.04035921837293016,0.05719850158935483,-0.09771716121954255,-0.007756747815075061,0.01453120784108082,-0.059562818843490274,-0.05126707447841817,0.028830442989376988,-0.008844655432844819,-0.05403823415798376,-0.17914404809966378,-0.1316859171826326,0.10338129809326004,-0.029768649839657105,0.0751260240401107,0.040812379477097885,-0.01001553400679848,-0.11214713221455425,-0.08694724392268943,-0.05173716376110394,-0.14272450627238265,-0.09976360920202057,-0.006118847320995539,-0.13543253841867095,-0.13159389607391037,-0.07591880000224399,-0.018582033131814713,-0.24550085773198774,-0.0823550562456989,-0.1937675617476988,-0.08934508190583232,0.013975987288065605,0.04927994763918464,-0.11243746405000389,0.045065924432800934,0.003718810028898739,-0.003208523569743012,0.011539739629587847,-0.026101092647779257,-0.039266101064173546,-0.16426876953465722,0.10310369070167574,-0.07504409973433558,0.006510944065229193,-0.003927091998171794,-0.059242189286194596,-0.049393429935081806,-0.013808767804498585,0.058679016764286565,-0.015278687912375867,-0.09743744571483047,0.06165663602678024,0.04063701002552871,0.05805616593280577,-0.043673032092063,-0.000009334325826868039,0.10408506305251132,-0.15319818956699835,0.007288126828347379,-0.12424105258875487,0.09404562965166564,0.03635668945961101,-0.03342359182677627,0.003886543878668122,-0.06257807527492712,-0.19867142978405622,0.07122165064414662,-0.07887119858999098,0.008254848142141384,-0.14561201921741754,-0.03986541032162169,0.017093582153987215,0.14265587462380716,-0.13065595002537556,-0.05603630324708529,-0.025271080873970887,-0.08664721343324316,0.10079747293886011,-0.08506187340582205,-0.12259124128866823,0.08306114518686039,-0.02590617871432847,-0.0662992477020264,0.1588573161797574,0.006672562790227837,0.09272329941530334,-0.2126554544718028,-0.07247346014505902,-0.04277652078051378,0.1318729493429972,-0.09382185850870028,0.08125165804256725,0.18569667784555202,0.02863005352429874,-0.06212062569883819,0.08787275356897493,-0.09665325635062057,0.15543160239142317,-0.1492441153838595,0.06683356762908473,-0.015026103944970524,-0.06429082229117009,0.03435219074135556,0.094486223689069,-0.08076515835697796,-0.027316044461590295,-0.028961413227993314,-0.042700427604210535,-0.006059733198571905,-0.10692232222278154,0.19915508088560807,0.04338685370711897,-0.036214548530127975,-0.1179426136282721,-0.02336522814767212,-0.17040099351001237,-0.1721400356536678,0.35005363966543634,-0.08502959846877182,0.004712464497140821,0.2437660264845183,-0.05936578196129993,-0.20503402207008453,-0.07183576324662704,-0.06162861755408521,0.17793082003409688,0.04272832622468027,-0.036404073697444785,0.11088504685233823,-0.04797079381831717,-0.13275546126150287,-0.0010536438377673138,-0.15223172956052292,0.04022490340086862,0.0571542923120114,0.01664362552076159,-0.11542126845377149,0.07821352664870936,-0.005881899746042658,-0.04494817369204276,-0.029402904211939702,0.009862426633311902,-0.02030780756924822,-0.03988707500661886,-0.1341260524133502,-0.07183885999471114,-0.02642586646393799,0.05471513733558423,-0.07177879905542185,-0.13579737102726286,-0.014371972126661482,0.11686304627056267,-0.060800608092981386,-0.10411071093714001,0.00769097423758898]},{"sx":5,"sy":5,"depth":8,"w":[-0.10470804395096651,-0.16937240999972714,-0.12117547076805539,-0.15517387231525398,-0.05604896207843616,-0.026075955675821105,0.07841666509151611,-0.06755170945701357,0.1342627511109093,-0.049512962020866726,-0.023120749724887424,-0.012408636228754127,-0.0883426019652062,-0.14316935465326594,0.034346227639925855,-0.1312539436206821,0.029660697733484308,0.024554278690499275,-0.01785451615535295,0.12527205024651691,0.00006049730173222868,-0.017312443017444556,0.05430083997524504,0.03402341856530749,-0.064002785861446,-0.027417092797351647,0.03774081418091225,-0.015258102069328205,0.09961153820926683,0.0022166269855927287,0.05119203795651379,0.06034920816443329,-0.05992849977259834,0.11947341908724239,0.018038158632538943,0.04752608987761659,0.047733888309437845,-0.026744791879303672,-0.11337300888950909,0.09203701211065861,0.07224098595232453,-0.00019214060932933865,-0.025865339703641743,-0.10867442128791979,0.03595363894146094,-0.2695807677091064,0.12893579664854066,-0.07807806833667041,0.013403116032823147,-0.08441301897437754,-0.051958171071669314,0.1500939350619471,-0.030821217190855534,-0.04949254968816447,0.010167250527073382,-0.012935877843031462,0.009212967162214997,-0.06416593061120936,-0.09199727830315609,0.022209056136708743,0.09098896719407645,0.02171065381670714,-0.03728927127027242,0.003142972826639891,-0.008858532343507756,0.11600175083319891,-0.07043371539207317,-0.15967931146079475,0.18991226521129861,-0.03809373096587969,-0.13742784738601774,0.08909645462751976,-0.1494723422534787,-0.03679953565148044,-0.08471053576313145,-0.004851722204170167,0.05539541739360844,0.0030528056040487156,0.020593446156432983,0.0801681655437831,0.17128278143448672,-0.045439736667038634,-0.16433535090492057,0.06444630805669513,-0.01644565519443559,-0.1454722488075701,0.17185473876268137,0.06388945624644854,0.00880725570015957,0.12383799642593254,-0.004790285311887221,0.18381714892713052,0.0205806565621232,-0.10722127268345351,0.0056951132607164605,0.1229224242254812,0.04606381557537515,-0.010665928501911115,-0.1092409828014535,0.029977352276749216,-0.02762939727729494,-0.11086838217398166,-0.14076925097989926,0.03240927945477835,-0.07303947105244386,0.002390779159579934,-0.16700066223768553,-0.19383484306777948,0.029925611346351532,0.01682865291333287,-0.20020247990835194,0.07016429990576054,-0.1593380920594413,-0.09539650573039568,-0.034165343997705884,0.026798933245454525,-0.007551868834761422,0.07044796747809845,-0.061021291107925195,-0.04268925801912162,0.09856611177832256,-0.09908617771251689,-0.09302976464906357,0.27037789413465546,-0.08138654631352969,-0.037413751629221545,-0.07512554442749687,0.03773777835080003,0.043749378341491695,-0.007568515680387636,-0.15340177700147942,0.1071788033315004,-0.06259933737881697,-0.06788734886386738,0.023249384752210417,0.11330565444982237,-0.0804593192287212,0.021156916187163748,0.007019552210820055,0.03717930536751822,-0.06127961506402268,-0.01836601675322098,-0.11479612809732558,-0.015459621063624435,-0.1879354244043432,0.011328566725839598,-0.12156206957522124,-0.09818117607536885,-0.08880604362509312,-0.006500428387689109,-0.16507941794837588,-0.047720865232893796,-0.0756744734027607,-0.024243922322008008,0.006406226285873907,0.04191555411022709,-0.009758090467371965,-0.054521436398389495,-0.13413429990872977,-0.12387270069410593,0.011906041135669287,-0.14518916339670287,-0.058059731542847826,0.26348374493362153,0.040169793039725454,-0.0591811072439387,-0.24283924396491122,0.02919540202359571,-0.1235914297210833,-0.1761360522083353,-0.08120313450545258,0.08230864345752532,0.04521356902101869,-0.0666441992541097,-0.12062142025152511,0.053714545046091425,-0.2079423833631331,-0.09089205240218587,-0.037928996837970276,0.08373521970095037,-0.02360497607239654,-0.02706450340618484,-0.14812804716248323,0.031105580119093118,-0.12779972073888388,0.09371752679844066,-0.035904074182073746,-0.09014016403382025,-0.15852565435814192,0.05314770419332856,-0.11019492349027753,-0.0791370176879622,-0.05206625541469171,0.13916477376759523,0.09269980713298884,-0.10609712653062531,0.056942943469550866,0.06034383769891345,-0.09770489510176147,-0.09644114646403248]},{"sx":5,"sy":5,"depth":8,"w":[-0.22618979257778268,-0.07962623249528389,0.13528759136439275,0.05283058154408491,-0.10352847247900676,0.012313236098803824,-0.1610914646435859,-0.04926037277096806,-0.1826080613142678,-0.08283749816115091,0.18746999258933128,-0.059030845688479716,-0.0948010833316067,0.20848740524749423,-0.007047810948062762,-0.013598354197245328,0.04829536255737994,-0.18404301480398724,0.09496446732099409,-0.012854978524040755,-0.04552800234539462,0.06344258004711023,0.030580708945303976,-0.00014244742843227487,0.1461615103639647,-0.0911796643812585,-0.016611007005137506,-0.06160821639882693,-0.1487194864011781,-0.05464573479943047,0.11747526653878908,-0.10438478210584376,0.14656072258220657,-0.17440980558763317,-0.27152336369364477,-0.144033362035449,-0.08451284625970458,-0.1397446176723338,0.019423913437356482,-0.010453623761120868,-0.15914987143626225,0.019802988397874182,-0.04537809433541541,-0.022260316991459434,0.01406653897650795,-0.026241859322873096,-0.08133812331773756,0.07173658765397464,-0.034506300581608945,-0.034169086243145554,0.1749745162199365,-0.12195672093999994,-0.042925837932978876,0.14606787372635888,-0.032550301818638376,-0.008085855690934873,-0.003008944075809582,-0.12948369522490427,0.047242067051224405,0.03499397175269977,-0.056410648415635894,-0.009056036451995167,-0.03314077759565058,-0.19259170011680737,0.07941532648533661,-0.06501686302261356,0.05495309602060912,-0.06000104916257728,-0.05712148280492013,0.014493017592113126,0.11532087737545732,-0.11774787608919156,0.061778909580351836,-0.09394088073803698,-0.039447256509384486,-0.0052333602387578445,-0.13484981723354642,-0.12306709371799893,0.17170096938331453,-0.026375717955426137,-0.21661314109536525,-0.06737710898213065,-0.09282264031276266,-0.05690048539155759,-0.18905235316893657,0.10272445329611866,-0.1212843310941024,-0.10008834921093356,-0.14077011004390752,0.03213789917967898,-0.023227226077003442,0.012510829275684088,-0.06915053690935125,0.03170616228753012,-0.1910932623800053,-0.1056339196811441,-0.07967795623248168,-0.10259461387908209,0.05516865784520821,-0.011216472258883213,-0.0035445196241256373,0.0812050239442625,-0.13519700868225687,-0.05093984046578844,0.08676504074273193,-0.17440717784471083,0.0956998208248595,-0.005320473565283404,-0.0638121592692249,0.13883541882094752,0.05102893188335265,-0.0009268576623209822,0.07512308367762681,-0.0942921743525223,0.14862611648421226,-0.030152041807911603,-0.16726532537433053,0.019014579275733287,0.12439292202961504,-0.09121967483664802,-0.2102631448489699,-0.11047388466667327,-0.11969054298095921,0.07534456073043283,-0.13743981647201695,0.10408217767749074,-0.03315287778378544,0.07465897595227934,-0.1000758661707941,0.04904645839655786,-0.10212292761860418,-0.0695010088524608,-0.10091614185608136,0.05289609412020865,-0.062412411187983956,0.0313540818829342,-0.09917115538715407,-0.036912949717308324,0.026610077049702047,0.08951500122895492,0.01911963994749727,0.11943321035580484,-0.10113724236175388,-0.04048683255437733,-0.1396894428626847,-0.19569108220609144,0.07959644474940196,0.013838703459302448,-0.11397847560723326,-0.013059791022977453,0.09046253676421016,0.0398041507277304,-0.09198955158424559,-0.10104350484978819,0.21221449264710832,0.1534305986849329,-0.1061947057763075,-0.18047934991304176,0.06068424299363422,0.03771137712640199,0.06929612271810259,-0.05095994844248428,-0.13028478158426393,-0.05268188634822402,0.03268339331693804,0.01686487448142275,-0.16883992156652847,0.07934466642478501,-0.010830011425545797,-0.0703986135708178,-0.18317638100564976,0.07641850352096889,-0.016066876457945994,0.04680457574809667,0.0678211721189821,0.11206463836316267,-0.04434324324036711,-0.05074216277949203,-0.07779226479134158,0.06863042695228269,-0.08280790949877287,0.01565738041912431,-0.06967432743404924,0.046896894781828985,-0.1573925582878608,-0.043385436886078835,0.055250194330587706,-0.042986555493645405,-0.09874723633800522,0.028247016270379663,-0.18732864654801323,-0.04379243703261298,-0.03557073827238014,-0.021690589149764225,0.25832696540514055,-0.053256351713711916,0.05924054829529981,0.09398261721157415,-0.1347118823868233,-0.023209545458001243]},{"sx":5,"sy":5,"depth":8,"w":[-0.027948465720068504,-0.02483367177797169,-0.06201128988030704,0.16203014099355464,0.045243117765183354,0.11722550678256931,0.05064792627746789,0.06892767377658912,-0.0013957300066874943,0.023383798851455154,0.16117712096801362,-0.12690815230261832,0.013340518451865794,0.08047417223364714,0.09344474853252074,0.08526585539659264,-0.043130367782882616,0.08611771816655499,0.02493680542408488,0.1277538096668332,-0.007032883408967525,-0.00460530832364907,-0.07233045483238203,0.08957454146277927,-0.16807500498414446,-0.06296042816268788,-0.06918224786535324,0.043282794526008646,0.04757433173939719,0.11081427508046221,-0.07188512383501472,0.08445067241899365,-0.1899034876151961,0.09057256123343228,-0.247533349764352,-0.03071815277733472,-0.107548916078523,-0.02088705891554521,-0.10830070002346968,0.04475141992383599,0.020498825240892114,0.11625730807833515,0.007677090864815406,0.13376711033923291,-0.03712332249793797,0.018344046203215173,-0.09238499252255507,0.06531911288181676,0.047511146268777636,0.12436096017959974,-0.016434571988332702,-0.011540318535651442,-0.037567024450712215,0.08907357023860173,-0.10206353117334181,-0.05001091978643529,-0.05572069441471408,0.10151001848296626,-0.07194895696231744,0.0577990397862694,0.004631980662681754,-0.07811121017350871,-0.12099210575779128,0.08791374178438478,-0.06324522154892927,0.034618479126648435,-0.019685749041985032,0.007012410440866428,0.012363774560821801,0.12669985809403542,-0.02402174163158084,-0.13670792964325687,-0.08643751305695865,-0.005076650052922758,-0.21459223328715962,0.04070890540834153,0.07925864809450657,0.02852697567499205,-0.0230817298142146,0.1266078486902906,0.054509691501689286,0.10865051937423337,0.05660836470279974,0.054919297655139226,-0.019980508860912564,0.06468572193571925,-0.030731179286522987,0.02373230196496677,-0.07323934081689405,-0.005376014950243997,0.01565032002621289,-0.022895945205243982,0.04949032100564752,0.024889194971219095,0.03614669760513297,0.08201364205075191,0.004033326494956958,-0.07038675231222277,0.14369265814478624,-0.01869529267626924,0.0691332912592276,0.00862719572408361,-0.05375246618872215,-0.08118271642498073,-0.10989797022716764,-0.03803288495421107,-0.1461208540841388,-0.007044838677907929,-0.04420068865415591,-0.0008753043901989282,-0.08822540750802658,0.020261294813308368,-0.09881742400199581,0.02965815628176345,-0.1486272654305973,0.09145901993325063,0.09103815264197476,-0.02027635028507409,-0.013050721754923772,-0.07720686002377478,-0.17165849442038214,0.0032116584571374287,0.032838978533102074,0.04642152981356597,-0.14716269743866905,0.16732479612584825,-0.06062064796919775,0.08233843954587412,-0.11570331929510567,-0.20064012201709644,0.0974711262517746,-0.06724233662029955,-0.06079028362035522,0.0646706600893347,0.03160389183322746,0.01148406244554017,0.03215773656486022,0.017636208236959213,0.05143762874578668,-0.003662429089062219,-0.03463626916737073,0.10708502861831352,-0.03585437568032148,0.06147657052645154,-0.02990905096937441,-0.01880353093258818,-0.07381442677217569,-0.08146442969647606,-0.036023476968605195,0.05065740902166456,-0.09118979024448287,0.07022034327083797,0.04544548711253899,0.1130272109443246,-0.002125787375623907,0.11027295387246941,0.014616861452590377,0.01596546508385002,-0.0058293506772446775,0.08955570226803636,-0.015480776095118883,-0.14081825556422528,-0.010464191226108102,0.07366978289930698,-0.007165717184568999,0.2205352752106565,-0.11701789810717973,0.0320640319193838,-0.12179824680038252,0.017707481474577097,0.05463280749465064,0.00465933409770838,-0.05953226364343855,0.144354248375812,-0.07125241381537871,0.05588625553277179,-0.16759104759200044,-0.07088769738056494,0.10424901084479461,0.027200712254867015,0.07378877476160194,0.030410101337495207,0.02170481527452038,0.14561138275583124,-0.040286498589111916,0.08168051472658862,0.07191300705174304,-0.01185540466581661,0.03388348574986423,0.13083566572498811,-0.05733949818648843,0.0626436676376019,-0.15957597426098116,0.13906747546370418,0.13063154480572192,0.1153066216929395,-0.09286029612013232,-0.057681335764899755,-0.04520178465028046,-0.028535461988705893]},{"sx":5,"sy":5,"depth":8,"w":[0.19831379431577636,-0.16409199230423782,-0.16568233341892652,0.0007128425270620947,-0.0631010783244723,-0.10574562163290031,-0.07396118216535517,-0.20834194735343092,-0.03829857918233916,-0.13220129931867794,-0.16447471472259942,-0.03812604488518768,-0.0897673321290237,-0.04135749147987231,0.004334518457994697,-0.07946465214855564,0.05958241804161274,-0.04721278340186197,-0.08130709099976183,-0.04745906181826258,-0.1052728754961228,-0.18855564204639333,0.08439390304982268,-0.17896179167142032,0.1645935112583856,-0.11279982186288781,-0.013622300448231485,-0.11726159336554261,-0.07342853152680272,-0.06593634251685797,0.03927004346567918,-0.07144749630821193,0.16106026090151454,0.010830420499025552,0.12113921589983093,-0.023413441677331833,-0.0381175428083612,-0.037878867556077285,-0.00006573419192486865,-0.09461316388313833,0.04569375085807344,-0.09738922109867644,-0.1907720617278366,-0.07282132511820183,0.017926631186650003,-0.1618216885914014,-0.06805574280956651,-0.18456407789609625,-0.038785159442124,-0.15466646079401877,-0.14126623738914024,-0.10099617470511836,-0.0747610589261196,-0.1122624946550382,-0.06769808907704555,-0.05200690552525852,-0.015075110242349412,0.011541127713267471,-0.18369920773597448,-0.08256388677231641,-0.15926740783020507,-0.04280608444677658,-0.05241537498781435,-0.05174886058411786,0.05091219136225382,0.1003155305764478,-0.007008983037855759,-0.11122027929517268,0.11740960963058623,-0.09064219975336031,-0.08574587906597306,-0.042115254475179456,-0.041941265932817794,-0.03147090962306896,0.2189242267948066,0.07032230387935538,-0.03636106140566821,-0.13281172575226113,0.05708354125989451,-0.04558470115597583,0.12732411742232247,-0.016448614650684038,0.021462711284287304,-0.14981110999687686,-0.025804160112135426,-0.06489892961632615,0.03363183705827395,-0.18788471221881434,0.027939460130967445,0.033227084875073955,-0.11348138123444886,0.029318229857114124,0.02942017777793098,-0.17709525667243575,-0.14317171471742732,-0.12321736027584414,0.1166155705071594,0.0076283037218226385,-0.04723630576841564,-0.08797990430145146,-0.12537379531439852,-0.06976845281843,-0.06228134129638108,-0.14666550172305093,-0.07787085873969507,-0.11245209326669912,-0.14369432236972904,-0.10236954643313062,-0.14134368539781098,-0.1409470920242596,0.04057286132562876,-0.09769697576127992,0.04173345818365657,-0.00340171203863969,-0.04603070396988313,-0.038702568298504395,-0.07776430540894208,-0.21990874364368393,0.10348213201885537,-0.14325271354218977,0.05785212954015672,-0.08495902000558762,-0.02337806949134773,-0.01330316306793516,-0.053262541904179554,-0.0747063325506456,0.04659474449201537,-0.14621156953277792,-0.043965978232386835,-0.044252135888656306,-0.04270221700965823,-0.13813558071144408,-0.11392173202984136,-0.09316599806455944,0.028288913745379677,-0.11333732704381279,-0.026318873453513063,-0.1516741974159466,-0.04008835853327049,-0.04754817404273601,-0.14827040424438617,-0.12000833786514942,-0.03971064010619668,0.026115393541347377,0.08786937879438342,-0.17532442929461134,0.07339583995694447,-0.13831322580484987,-0.22228646754849674,-0.17807634052423535,-0.006138456195456282,-0.0991757619459171,-0.04517234136596638,-0.11895490865741064,0.03219551518564765,-0.06409349216963148,-0.06324411150263987,-0.21311734214295294,-0.13018201206763963,-0.09855651901759016,-0.03687439213894969,-0.001275697254782398,0.010728256298764503,-0.029554950967153246,-0.12792217432735484,-0.1673201096359393,0.16488299384844357,-0.0664223349727313,-0.018514679469673306,-0.013893362902417486,-0.03567393291350852,-0.16387828565559703,-0.029979575827833515,-0.0853983004000416,-0.015481216068170383,-0.09100585397972462,-0.04247278006422233,-0.08182074851846656,0.0799222349125808,-0.09411132539499031,-0.059505172779677803,-0.19945612660615067,-0.04834299182066411,-0.08961424656791274,0.06813064642900452,-0.017892049849832208,0.11981952278296636,-0.18889916340945875,-0.1108448561191597,-0.21139998558676415,0.057032291809811654,-0.0913578788174119,-0.059812516266480195,-0.04192009698960635,-0.0224287674258385,-0.10852398844884373,-0.1418409137097883,-0.09378911899227546,-0.08314788395328165,-0.11160609474902283]},{"sx":5,"sy":5,"depth":8,"w":[-0.19242520732591578,-0.016475870279712545,-0.06048824019337097,0.10924026663820224,-0.08927673336211359,0.04803970248053091,-0.028211120641837496,-0.036063952018097235,-0.07757377491021457,0.02000745521011071,-0.03983253332338278,-0.012523262412118924,0.06778060411522256,0.06193625810515117,0.05127753102043809,0.00982850296438136,0.06520715498752018,0.010798267816760708,-0.047553803104055686,0.0911509867513283,0.12200636426129946,0.024407865369384087,0.03577485482824749,0.07969895356335283,0.009202384577227779,0.028856280139372678,-0.026641666696198427,0.04217251300300076,0.08378802207486175,-0.0869876859580044,-0.03312317174571043,0.04376721247247241,0.020600968976479037,-0.03167861186504577,0.08924125646172719,-0.09788850183241844,-0.0485207325829766,-0.10255686828310327,-0.13592756920400031,0.10465965391860907,0.0371445027196159,0.030103989224732394,-0.08678421500291002,-0.10936612565311547,-0.030733152653184232,-0.07675593252444723,0.04528448570221976,0.041551989336091895,0.03631624319802829,-0.16805037986280288,-0.1272212484317848,0.027538287735234455,-0.23264490088592685,0.04999573637418862,-0.007429314462220579,-0.03330334695184583,-0.01553414736599541,-0.15171283584929834,-0.006997860391443832,-0.08460717514845195,-0.009958982668017705,-0.04447314032869443,-0.08528493438567347,0.06366027301066934,-0.1989205381805795,-0.09722129469518559,-0.030694748556948065,-0.013138766086997386,0.10699098251525917,-0.016124139230213955,-0.07881970976908827,-0.05371162759701114,0.06051935504151412,0.05636894603775894,-0.16485895750922572,-0.0741534442486128,0.01285158674683417,-0.05793894612066168,0.04454152882412142,-0.01938028860776981,-0.0022580776286737184,-0.027640481399817788,-0.17171249561835822,0.003316895270246441,0.01247464443896695,-0.04640783033004396,-0.15566679589150784,0.06371639561042194,-0.1055787061690589,0.0011513082173798361,-0.05713006294596342,-0.018485827195187574,-0.02732988595623659,-0.022667697679559305,-0.07833600773776497,0.01962829874799837,-0.041374274572975316,0.02321393821069556,-0.1074896013438773,-0.06152478969559889,-0.007909228962482421,-0.07030519025694759,-0.13353066000955083,-0.03333505680503023,-0.03738927144829224,0.0603083396856926,0.018787261157821648,0.015506675665004646,-0.05621460090080163,-0.00547732702693163,-0.1274345012537001,-0.020880904121666582,-0.01124871481378949,-0.10448231633425331,0.07771498998184134,-0.0896722916771276,-0.0050824682502021296,-0.12444383255336543,-0.021772505034146107,-0.05142248853648139,0.03793806748325672,-0.09913018709369659,-0.0009711593324506767,0.05304309336104184,0.027780199940664767,0.013084031593130417,-0.10551329176599863,0.16597442854721217,-0.16205991461246644,0.11207177038747684,-0.04083629242292352,0.008360517022094213,0.022960139915807778,-0.1185787170773208,-0.1716330598860289,-0.11368249091397441,-0.04412542303813766,-0.09150374374908754,0.12015556310188351,0.02416994341890312,0.047381777699570006,-0.049245467190275165,-0.0757724885926859,0.03872095126291155,0.048700166419480856,-0.03497347740608623,0.03363882799551232,-0.03463113005408537,-0.06447482466471745,-0.04081637239791114,-0.11541456847228948,-0.1897215283638874,0.01152818389652327,0.0557542205772161,-0.024776312741604217,-0.13386925771516406,-0.0031804297304716496,-0.0389827359513664,0.08399350654767201,-0.15877371773898258,-0.05051733806036989,0.09197963948287499,-0.10190654402485531,-0.09518126534451835,0.030726139892387882,0.044038313660534775,-0.05858723024277314,-0.0708937264409729,0.005766373123854996,-0.0838230492893933,0.0007153998906837078,0.09422649790730607,0.05385605148069717,0.09735785961790776,0.022518463422583995,-0.08512472190765707,-0.09765389105911033,0.04687450771166227,-0.07248002206974428,0.04069962561194153,0.04833092203806948,-0.003516136766873086,-0.027880033820390143,-0.010234425277102303,0.03158709580498427,-0.051683918384551435,0.00416731128884947,0.07186063863818129,-0.003548372926465675,0.0482674450543129,0.037832813289280426,-0.048353567021049114,0.11617803448436032,-0.1549284500502707,0.23451927763008928,0.023126603480748513,-0.08519936298973,-0.07258844803742732,0.06528557085613147,-0.03892073394860593]},{"sx":5,"sy":5,"depth":8,"w":[-0.07867357299846282,0.11036999333894686,0.1701485138894678,-0.023270839764626898,-0.0705503546735365,-0.08497751545826504,0.14874928588555375,-0.10464708231604296,0.07987753281545644,-0.2446974780779208,-0.1149468168536722,0.04582923499646491,0.20598236054771618,-0.1622094330553086,-0.07681188152373554,-0.001255035414291318,-0.013780791515001176,-0.1066200713536014,0.14732106118443164,0.19193934740594099,0.29097403308823583,-0.007521133498063031,0.03391871445341673,0.0879971963398956,0.011627720452566713,-0.06903351889870156,0.08856474055820004,-0.06911399924485773,-0.002705099221163033,-0.00997704885531055,-0.06269313312331924,0.07162156216882236,-0.13089444122544483,-0.11835609314513885,0.09534570203438777,-0.03814054791454996,0.1673791262180582,0.02429393761569625,0.08072106658136817,-0.05009487751600066,-0.05826928192890944,-0.06929046025952687,0.06959858029576951,-0.04033486044329746,0.04453672583508116,-0.04452773086895653,0.18985781925468245,0.02746252845610501,-0.08324493086530985,-0.04376479364360036,-0.05629399935777051,0.12586389521900332,0.3596221413628193,-0.164524754344238,-0.11990188934660788,0.12050261194509376,0.03436743305379064,0.26850305848008377,0.13474873687400626,0.1419338325953923,0.1965612685961119,-0.2378312650827601,0.049366534708369846,0.1289755201347474,-0.06184120141568044,0.06321557174314965,0.1715828174677156,-0.14408280790915484,-0.036229081444801824,-0.013457205835835267,0.028942971579016867,-0.06565285306703952,-0.04186571171595719,-0.06263118598711723,-0.0065029374290321695,-0.00710441792528543,-0.0015025864162633022,-0.08806318015899861,0.0532078680836179,-0.16618404136118037,0.19123122956072047,0.06743003350025492,0.03739233873326055,0.17633345193584155,0.03734002690070793,-0.22046113432646247,-0.09626387846126522,0.24125884269339745,-0.004308447277784141,-0.17956673231853099,0.009121945676156262,0.17671053843402418,0.11249586765011742,-0.0917442057275085,-0.006240546156547512,-0.06009932476329935,-0.07149707415244246,0.09083643987465057,0.006733744668881966,-0.13347686230248834,-0.06613299081719429,-0.016625597393151375,-0.09517920544063745,-0.019161672717254538,-0.0730817956882992,0.09611327489025318,-0.048445741946802456,-0.07472589866823251,-0.09491160826796852,0.06526600054223337,0.14768961433460998,-0.1851630114483271,0.052494758077969265,-0.009431216263712983,-0.13491830042786973,-0.04443905362777425,-0.04168395838857816,-0.11213021076445849,0.10180681267786156,-0.06868034686589368,-0.033967805810895965,0.1412863527321324,0.02283834659941101,0.17362776414584188,0.09638704128147518,-0.03673200262064201,-0.10189346260358431,0.031549107762121914,-0.14298909715095465,0.15210151778669959,-0.02576394365700469,-0.09607614785008764,0.05621007790587718,-0.09560750039560026,-0.042698223827545664,0.0689023360938075,0.059265704183664156,-0.1104677785231466,0.12287779837530312,0.03001412610197132,0.05074582588737662,-0.1560369893625956,-0.00963433024657332,-0.11921376768882068,-0.19064115162899745,-0.010341126917326063,-0.046522405171375326,-0.10375881965086098,-0.12351258482168198,-0.07002047676385682,0.07180074516051294,-0.17177996932956505,-0.026708079748585762,-0.1625136038524699,-0.08872718206764979,0.01693515240148621,0.16689975156869372,-0.05392931932690543,0.01140724634158306,-0.004920438817576266,-0.01384353413722242,0.12731608954100088,0.1076359343244357,0.06383565211045455,0.08217066431142946,-0.05211072740776804,-0.034490003933504355,0.16748139496366693,-0.05530042340412974,-0.006507628690830086,0.006508809810142808,-0.17150508599285033,-0.08847207227795392,-0.06351059365638566,0.06353469124971127,-0.0050187525052423024,-0.11027471473258796,-0.055644662996270244,0.2509285732165025,0.02553968148822989,0.14990046585316247,-0.12895368489360193,0.07383977876975734,-0.06266265491335234,0.06383939178420227,-0.07680884331328479,0.1793450881697873,0.060901963490738134,0.04899955510301024,-0.12234910920545265,0.14436222372058038,-0.00007173798245556709,-0.05324548607244238,0.0852558748697208,0.014642289456872418,0.09970552585851492,0.049988478789437345,-0.04326040293306293,0.008909241444022997,0.11508813263276273]},{"sx":5,"sy":5,"depth":8,"w":[-0.16793883873273258,0.0928649221311674,-0.05285936722282787,0.013753284127627156,-0.13205682885802056,0.04617292247769684,-0.21687509430752663,0.08244690211149279,-0.03432212857002689,-0.020657172711508527,-0.16185117887751901,-0.17677506386162148,-0.11459376878269446,0.04160700904010874,-0.07002099534113647,0.09969267130972946,-0.14031435811791654,0.16434180338321114,-0.09783196656686304,-0.17080660959555738,0.09265914117847555,0.053063917185139024,-0.03819307429454611,-0.021947025775020036,0.03005859368909736,0.120119013914595,0.02447835965557871,0.005960666295056071,-0.00509713018866269,0.0028993799736460554,-0.20525502607963353,0.04191585988324627,-0.1564862933901085,0.06583053542780196,-0.08096978412201956,0.014832839173793844,-0.04921098214462273,0.027987547748626645,-0.14635312523417493,-0.04830254999167449,-0.1919465207284622,0.15755748944332776,-0.06608752760031003,0.0185898209805902,-0.028906122703399574,0.1018843888656238,-0.03012125164947483,-0.09735680347945937,-0.026899135869444507,0.09495354466013056,0.04413695496678098,0.06491258504020629,0.04307127604691966,0.008105570715680402,-0.13393223174758956,0.03439803192927798,-0.025517091666339687,0.1448028138193296,0.10460195435476627,-0.008277577648982709,0.004855482132825179,-0.002063564073587617,-0.0825830411603334,0.005406060500823444,0.06729287070483106,0.07212525147093908,-0.023906973180319466,-0.07382701996096815,0.06878653246592643,0.007676466361547684,0.03807137819720604,-0.015069554622468263,-0.08088314555429293,0.11015096982764568,-0.011763988344949131,-0.09612850364757751,0.027652588882537348,-0.05238595653251065,-0.08049808502207637,-0.09571435554207879,-0.035605740249584995,0.054623741764656106,0.06279852764649674,-0.17570512273150982,-0.04234489599454856,0.03642712356987368,-0.10376117252886732,0.026209830258931345,-0.028985181208857767,0.016213803582053377,0.08011928020146444,-0.17638611218850928,0.032926776923775714,-0.056849911728785674,0.020388081626026726,-0.09477408824475694,0.1090644653438026,0.20355433992976965,0.08766206799611892,0.034358045722002885,0.11550603570450992,-0.13974386696722255,0.09300616603174656,-0.06828341321502546,-0.06396520628769753,0.24711482887192882,-0.16094691622511031,0.003902293342983461,0.06971274773983839,-0.05616853790903208,-0.05509451462569637,0.00902141335251108,0.011890860980444076,0.07089769783724639,-0.07083787038821464,-0.02283525717637167,0.003560565115436786,-0.0767179263557153,0.00244776153313047,-0.029454867080837062,-0.08689698212796972,0.07170883473094038,0.09674560074757693,-0.06679703972392625,0.00513803821332571,-0.013599016012679287,0.003685989359536272,-0.046761546548471304,-0.019712015717117903,0.09386258281088154,0.0328413649244993,0.018014830287216763,-0.11852517338121939,-0.005034197364194625,0.08179238313760184,-0.0904230878169534,-0.21244576753197608,0.26618133773959707,-0.03549753591515816,-0.0014944382098059654,0.1668047118116664,-0.1408118024857544,0.021938754981547924,0.07865272320185557,0.0246785105166267,0.10601760247347604,-0.0017837161597037414,-0.08051535934900819,-0.04264551872663519,-0.0762334955858273,0.04766733502105611,0.07534848954176283,-0.0002292958967143534,0.0732415211061998,-0.11248160184715753,-0.20155199676985042,-0.06153243727289278,-0.2220247335082649,0.11507242250157156,-0.17093378450779528,-0.04540346481241917,0.03864956720106812,0.08757658354543403,-0.09966773323903015,-0.062464986235963554,-0.06608416371356252,-0.017874140556269687,-0.0571490998066736,-0.0293407220771383,-0.01538155160481362,-0.007404900325893459,-0.0699495057338374,-0.10882220038662452,-0.0825094597997366,0.03828588791996311,-0.19388883579533536,0.05325060337393262,0.08282752593089604,-0.07448387365459483,-0.19707821267512318,-0.11034052718414288,-0.13571985577731277,-0.008912844047846787,-0.1308587584577437,0.038640011191232615,-0.15118072920761752,0.011995605483742417,-0.14911175991128184,-0.17535537561269587,-0.05811081023201911,0.0007556430554433481,-0.08283053113961941,-0.00996062533705985,-0.19627367277715616,0.03302958024423481,0.005936667126086287,-0.09544768429156973,-0.08153502617358471,0.05435551684955678,-0.036052256383052345]},{"sx":5,"sy":5,"depth":8,"w":[0.1014227860124455,-0.202183562662983,0.04136037772573452,-0.17360705324977466,-0.15850073039428622,-0.21718159232886017,0.00500700159119283,-0.13784851398079578,0.16099739961646276,-0.15685043484445016,-0.07078407625264788,-0.08630587982785513,-0.19812311936095214,-0.2245149488691465,-0.007168810118694887,-0.1068547717063062,-0.04807440233618979,-0.19724498600777052,-0.11979309572502048,0.002481345811434602,0.036967643583179846,-0.21547071796827932,0.023213936203328994,-0.13880630452087694,0.11327356602449727,-0.17060129482055528,-0.011626174387964905,-0.020641041982556552,-0.08848201055111132,-0.17341753721528114,0.09536682548747329,-0.05848216644043021,0.18907417469209412,0.03232401813146437,0.13847241154816947,-0.05850210766270932,0.08785446207608802,-0.2969846848806876,0.11505097325676146,-0.10373026423378916,-0.002381998645260108,-0.13092873370549774,-0.08494761308441182,-0.1881885196022241,-0.04007024422012321,-0.04926121100643059,-0.134651184345588,-0.10441970866924816,-0.06176830193404989,-0.2044632840757158,-0.1139988220956208,0.021026080962416774,-0.07956419420370797,-0.09671077633378451,0.13227794872279566,-0.037738427498152746,0.03130481450419158,-0.07385128416627164,-0.09702992604611098,0.0021828455350256775,-0.05445693083040945,-0.0844716985696716,0.028963183571878156,-0.011293842561281074,-0.13782888295419518,-0.12032393966463745,0.13723138803775156,-0.14155882790753155,-0.11993335788856319,-0.07939149193709898,-0.039434529688752475,-0.07496117704383506,0.08342618121202025,-0.2671756408660696,0.050109693320920655,-0.24599623174710583,-0.03143067480560028,-0.13833277334000163,0.09713407949203227,-0.030596073643722584,-0.08343886009374879,-0.05727748485356234,-0.07177300156168064,-0.05395039005102579,-0.013688376149656348,-0.14446369922551328,-0.07001692925476345,-0.1292423407825981,0.1389786471207348,-0.08869306253324842,-0.15034695849766333,-0.0970682720195055,0.04909649080203742,-0.06194935732318747,-0.013280008196682765,-0.13499142107632267,0.0979578654826163,-0.1649481668657342,-0.13894786310303334,-0.030439008440778428,0.02796278909384064,-0.08845043045124841,-0.14179346828717615,-0.10329452837707868,0.04153329664639164,-0.0165341758815131,-0.08498675698254618,-0.1575033188208225,-0.042694859056401975,-0.13574615405718993,0.055512499923751665,-0.06537273336447681,-0.08104940598773391,0.00902105225612405,0.14410541281612477,-0.012849120179394248,-0.05887660628800928,-0.1306185229927635,0.10543298373198709,-0.13341912148374407,0.04027724297118099,-0.09407044345042195,-0.16553635432570069,0.13360566031182355,-0.09493912012899407,-0.09664869858167455,0.0650099404023673,-0.3181524535406973,0.15237524790540677,-0.03217652955818646,-0.17490024345907623,-0.18238202146880533,-0.04633245315885068,-0.1554263708432614,0.02161610058201695,0.059273609782105746,0.009086946023170568,0.055620715852758885,-0.07322123897209602,-0.18203799588390207,-0.09601652478350028,-0.209221665301072,0.03416087517346183,-0.06670507470182943,0.0004990300514707252,0.18915654561706768,-0.19239189492000205,-0.14179655545793915,0.021425745517213463,-0.13272587290960877,0.0288823549400553,-0.02537336795914364,0.02024281936640083,-0.10103687378845579,0.032394827767909216,-0.0786332357504771,-0.072989033389374,-0.15693022750925095,0.11878485390082322,-0.12394284058844028,0.014457089140202373,-0.06685710801339786,-0.03458032217335901,-0.06480004412825165,0.015456523419633517,-0.21271179120906905,0.06638352069016135,-0.04215031477419974,0.03809528847803088,0.00807034081098284,-0.05475825161857135,-0.0476229177798808,-0.09743160668076953,-0.16383594758913997,-0.017697029039426607,-0.14711484680583628,0.017301072163287388,-0.009306619452618077,-0.0172019829472349,-0.23241072379639838,-0.06352188431773427,-0.018219323291308546,0.008495163117483304,-0.10394279500372205,0.04200007852661904,0.007111463160358818,-0.20288546372322908,-0.3099696601771295,-0.1322573216480871,-0.1391768041015379,-0.04077430904753623,-0.2004768744748954,0.06082213876527565,-0.026251306967507528,0.022669380379110888,-0.19673880851092773,-0.1257513993251325,-0.14250833186206802,0.07097766763831855,-0.07319492750268852]},{"sx":5,"sy":5,"depth":8,"w":[-0.03558231354306863,0.10760176814539932,-0.08201926646879777,-0.05508371604585844,-0.03970077472785055,-0.08959635280739141,0.031712245516063026,0.05544088741584737,-0.05451725234810283,0.1673044455972718,-0.0362522469030064,-0.03181901137618771,-0.035786195324361204,0.0688226715905284,0.03500287514921958,-0.011471769459953787,-0.18534881878750514,0.027064724436905285,-0.03689300482733935,-0.07276135719745389,-0.014767719434629057,-0.006322070388158061,-0.08855392859102819,-0.041326267073653625,-0.01496427696321529,-0.060500907544937144,0.03145899996048532,-0.05500783730550739,0.0023417232384566155,0.020071554153658112,-0.2001072589563906,-0.006203783353099571,-0.05939169939469394,0.022108115072759865,-0.1099210098058192,-0.09665796888014515,-0.01335830534279073,0.03240902047026189,-0.039498932030185174,0.00642936790532571,0.005035930805194542,-0.027003164390457832,-0.1386251136145524,-0.07010618077274813,0.10916290934714201,-0.02309283442443597,0.11321000407598655,0.09354064356291421,0.019290816467092492,0.10659697080835737,0.05175552972486408,-0.01036922390587182,0.04495021536950964,-0.007371126063473848,-0.20073368881104045,0.15240856074036535,0.05882955486373001,-0.024442932722042218,0.14190867017657655,-0.18836164091704763,-0.00784094254584584,0.04350911444091084,-0.03361701019530588,0.055937885892224926,-0.11607673797704274,0.12349440875307933,-0.047794791092032156,0.04119742793248437,0.05315028728378759,0.19412548434325552,-0.131484967208949,-0.02263865822300368,-0.11693035104174597,-0.03203472193706119,-0.1425071747877816,0.00528108156851301,0.0469712804064934,-0.016277397694151003,-0.15636342949206863,0.06151001558307942,0.016871972998346738,0.2120323707799042,-0.02140165793823668,-0.16845724129276266,-0.03833036297892824,-0.06110574845747277,-0.06683651613754939,-0.13202480804353633,0.0394755799768489,0.05711909247030709,-0.0830500322860631,-0.1351164016917295,-0.06882361827996109,-0.06502059109213933,-0.06502885444220828,-0.09383089836740256,-0.05826266873406202,-0.08674999059563734,-0.10268439141016458,-0.09018309059981235,0.02130079206256663,0.012142187056913898,-0.12074165077506065,-0.08137142396346272,-0.15836382191521134,-0.08552899646780134,-0.07426556925176442,-0.026816755337641926,0.06597632837416949,0.0631218872297266,-0.152910484463417,0.1844814134440557,-0.05193636950582455,-0.09729814827494604,-0.06997670421309739,-0.060101241611554605,-0.06640394396217011,0.07949601020220029,-0.14449654996421626,-0.08958961731177925,0.0032452328775204563,-0.07804065745526748,-0.16065525558886415,-0.12578563221049283,-0.05445909463480712,-0.048374932148322336,-0.07143514421729782,-0.16436931447061492,0.10318471192196209,0.06741219309203432,-0.12581849467918088,-0.08720881252717949,-0.04076344331043218,-0.020735802698669856,0.015608919616272615,-0.08393763702349065,-0.03994994349682199,0.07071517237348925,0.07791081345476865,-0.09956503244488274,-0.06063538947305892,-0.053625770233655695,-0.024092862242401137,-0.26290587523388104,-0.2202612916400964,0.013355420586073126,-0.013313968823951609,-0.03547096267668553,0.11435319455508092,-0.0055252919366691345,-0.016114768554115196,-0.06166724089512449,-0.11732459080633656,-0.030250919611871922,-0.11858462487765138,0.007577783217077729,-0.11729867126836097,0.06614466181196062,-0.03158471009451292,0.06688025981294514,0.06403578267872616,-0.029377223525887956,-0.23024079633870395,-0.06687285765707734,0.0011776806884773632,-0.13651687769698323,0.0017154682031624612,-0.07674993909841903,0.04549563174071448,0.08554972484478157,-0.25823677103447795,0.026772361098914576,-0.044099206724273095,-0.24236559475220484,0.07705555936405821,-0.09028405820786303,0.19687911915278578,0.03431803659067766,0.016455378195755502,-0.019702333928794252,-0.10253140123669058,0.0034391319755606026,0.11774406805481337,-0.1095903861065556,0.05819112730664342,0.09741255647956394,-0.13898459541616362,-0.07402361090000631,-0.009280015161222604,-0.0717067047384418,0.011319382103342488,-0.1580997692517184,0.06228037739320047,0.0094739623333936,-0.03283405484374188,0.022066081734038442,0.040789664397521255,-0.09170442043148958,-0.07544066059271194,-0.003945108236667804]},{"sx":5,"sy":5,"depth":8,"w":[-0.0568547748142201,0.1400799914734951,0.03971333680197397,0.007729912280526733,-0.08332507925659861,-0.025452627087704252,-0.02388038955520738,-0.020266183046488775,-0.07407589640891893,-0.016690158842544517,0.09714614668492288,0.02550321614461805,-0.08298875216294957,0.1090867983506065,-0.0629705951783906,-0.17941905714442635,0.034235689930191014,-0.04688974057456324,0.20785519315162862,-0.010284879789547357,0.007851150271976621,-0.08099428982197167,0.09622344824255587,0.08629642358879866,0.1086672083998292,0.08839515339069007,0.029558720266936525,0.05474160400841494,0.11508968571315029,0.00417459776398845,-0.06517183267801605,0.07014808403316701,-0.03140941046513676,-0.08297998050691309,-0.020134516311495015,0.038640841424445085,-0.009614135371339257,-0.005242839633757556,0.0559890255520742,0.07940972819812792,-0.02608810006548826,0.08855820268282029,-0.014846924743517655,0.024479677969423415,0.07445460316891428,0.057659179632451846,-0.010210542556184,-0.1009285861026222,-0.08786521282983886,-0.15045650883066755,-0.03110950960521985,-0.10705963946962144,0.06922648384351594,0.024600982706099755,0.12001719245388491,0.003162116155646359,-0.06297285174580547,-0.02211021573118918,0.04222836944152613,-0.08148065120379043,-0.07562449374986673,0.020464572140095255,-0.08977816114415776,0.007001259617984433,0.0419882622485496,0.01653501270845619,0.08902608715233352,0.12180955015282581,-0.03506788774301982,-0.033799154579728326,-0.053723909080946756,-0.1090933535214965,-0.07169613112962171,0.01735880199093507,0.043293099417865154,0.05534557453474282,-0.0010518702122945987,-0.04877040552427487,-0.19583316880982118,0.07972111663777498,0.02181687918115255,-0.02332922774859803,-0.11235833521352767,-0.045737971744093504,0.03190800397758312,0.02017242210757674,-0.03527961102647879,-0.0516340858387694,-0.026182294379483995,0.03928264041217833,0.06344150150471183,-0.12417730559909441,-0.08613148886126071,0.04255800651326399,-0.03949367055573231,0.021154770943497343,0.04701476310430619,-0.10826135007272623,0.0227760306048632,-0.07391165001267004,-0.09599382314502462,-0.027983298722137555,-0.07554629668374607,-0.061585932358986586,-0.03291501537287047,0.010468186954038776,-0.021193074454328192,0.14849808873054626,-0.038148570095450036,0.015611920990478811,-0.0562206878681417,-0.09985167937285797,0.020336639797918422,0.06750108467950222,-0.09471607026089172,-0.003425465861073512,0.007198788906471245,-0.0032177462443227158,-0.07999627519575576,0.04758373821947435,0.056440464941394326,0.10560931389387178,-0.06343737253622686,0.1605108980001851,0.0573681380791157,-0.016106245715749742,0.1806485502936329,-0.016002977169516312,-0.05110590853189628,-0.01933912457785674,-0.13524626742752385,0.06375799891544573,0.05036088498830156,-0.04184614890829277,0.004479738248167242,-0.10000972139644532,-0.21029374943088625,0.015520945748875435,-0.03934962712623568,-0.04414859966098028,-0.06022267346103758,0.03139691432358212,-0.10646405215030504,0.049958080091644624,-0.10369633082004576,-0.08257729756547111,-0.18668075951848165,-0.048410059417961206,-0.09346567924792432,-0.11608030328962883,-0.09843482305894992,-0.043705231166689666,-0.0622731459065654,-0.009185493004531342,0.04343616268509576,-0.038360590546065644,0.167099877250901,0.08247846973439431,0.04775652669159328,-0.02818993586533791,-0.04952880593371244,0.11065745803487574,-0.027743839842826707,0.172374552863069,-0.010018011107060264,-0.03655579144375273,0.1646981471459232,0.013068361041698635,0.02913327100692672,0.0167399053035464,0.1003181508080961,-0.1052718006036135,-0.018869693600802404,-0.10333204406798521,-0.06614124401614645,0.140219435941091,-0.07251796831821926,0.14278116221659493,-0.2934479755809032,0.06766640071769908,-0.10500581816624634,-0.03382019981050676,-0.10577063845605049,0.07916079987861079,-0.0991952046824368,-0.03415505094302229,0.09138069585630021,0.053642424515158764,-0.06758169610856558,0.026188119011416367,0.04996395026249992,-0.11920266504900329,-0.022003704504135406,0.05099607795917759,-0.022502073098863713,0.06615062412773841,0.05246922677022682,0.030993846429373747,-0.17198901467168323,-0.09027971291072444]},{"sx":5,"sy":5,"depth":8,"w":[-0.015640681606140006,-0.05509872452295489,0.019384865275675837,-0.005611493469489617,0.0214922051192954,0.06063974589383134,-0.0002815096305402845,-0.027587870518886545,-0.08514174658770444,-0.0030449512219986926,-0.010299297681063385,0.038269679947714005,-0.06334452935119339,-0.025549714642611517,-0.05525495336001039,0.07217501629772488,-0.10762449828007481,0.0734443795237881,-0.06052966928959794,0.04336495107860349,0.05196312982246866,0.04137203654386257,0.026638402032744313,-0.05149037364968544,0.07530560679472462,-0.10818776572980651,-0.05736031194051776,-0.1579229878275318,-0.011656729554262847,-0.047107795649073816,0.06419907642417869,0.02231547378733524,-0.04604073165068699,-0.002746790160876831,0.00604774671415237,0.07466474591714418,0.01288533810819168,-0.07392413607303994,0.031854622611685667,-0.0660149669108932,0.038473958192260245,0.037273976806055965,-0.0300996096013078,-0.02571139363939504,-0.03376927569550634,-0.026948494503259625,-0.020266160340908192,-0.011113628593191434,-0.06532511161352571,0.0018120978790666803,-0.0012988144003049803,-0.048865815857764366,-0.04392074998746412,-0.06808955127218756,-0.10227460684669386,0.009018426967900728,0.06099916896887468,-0.01827932356549718,0.05894154671493811,0.06993767934976114,-0.10762448712062701,0.007257097344543978,-0.05232301136174998,-0.07459816583890212,-0.0362603575995901,0.0022764230108246863,0.017388746614980598,-0.11824109121132002,-0.08857842288342219,-0.037771318328960704,-0.04083622563588521,0.014714303513107341,-0.13233176987346104,-0.05195900855744846,0.029965295053091017,0.07091817495480554,0.09477462660892678,0.00612975146655297,-0.13821516669753373,-0.0782269174149117,-0.0938789497100314,-0.051050114916616623,-0.0422718446955692,-0.09334930048939319,0.004051663612626976,-0.015065736159180422,-0.05239126804871804,0.07915584322170278,0.11311871436396988,-0.06498275431666528,-0.0010877013578794263,0.08563460231873286,-0.06808772250482846,0.04926931943818843,-0.03820255901001535,-0.014037208465864408,-0.015588224938560382,-0.12619126921005985,-0.020622638933572707,-0.10279179554614654,-0.06813430399338245,0.0340187360962778,0.04023819449689247,-0.05744775791600843,-0.11095719327261447,-0.07433460079623753,-0.10731675288044996,-0.036621033171053405,0.07087863461186976,0.04665762181721194,-0.07492172494084379,0.0027468932619102485,0.04775397719943662,-0.11474536789796505,-0.05864519087263971,-0.006626654287681786,-0.08214563328757891,0.06228934054757955,-0.014130491069046847,-0.048622305768374556,0.07502778670799432,-0.08563258015907228,-0.037761902309451846,-0.03230777587400491,0.03401574270186349,0.1491229718740605,0.0334042612006335,-0.05747335529287444,0.002100460516719394,-0.04567966796255378,-0.03307704405544169,-0.06817271100572243,-0.06138588979566797,0.03903561143243532,-0.1884799326894093,-0.02641880387285546,-0.052639034674209204,0.06991045940344197,-0.0782137567598524,-0.08497988211012883,-0.04531944331463909,-0.03312761711722024,-0.007002328654539957,0.03213593326004778,0.13001844634497514,0.09287442546508702,-0.03937918621272481,-0.03317839098932045,-0.09119635456177055,0.010822072746320478,-0.04408197935628169,0.021755243517263496,0.07394616102672527,0.056146251467654985,-0.032315002998504046,0.07172421083649677,-0.15445313178289893,-0.07810992541888799,-0.010332204239708875,-0.14532765282511007,-0.04267337987493327,-0.11168404198311478,-0.017016169574814225,-0.001320348363831094,0.09862775908017878,0.16149801910548686,0.01692414756093219,0.014334875949653842,-0.020551433852923528,0.0489777633792845,-0.07416954711546414,0.04295609175817851,-0.026526352656544894,0.095646636633935,-0.006236963097440919,0.05776718407194546,-0.011348307039284236,-0.019765417295760177,-0.1274191704648442,0.02963200386579968,-0.08085354500302033,-0.044603698669861046,-0.11309573614727043,-0.10586264174106827,0.0059184680920048955,-0.12858360811246267,-0.006625996517325242,0.013531341551100915,-0.03160512584697103,-0.022064982942391634,0.0825417077756684,-0.14032043135585714,-0.06570998237040272,-0.030824504838206028,0.03266935896093712,-0.06194086100028311,-0.019912660080429447,-0.00109789881473713,-0.09836759266682274,-0.02143209472752946]},{"sx":5,"sy":5,"depth":8,"w":[-0.022780356216221792,0.05326262851476955,-0.012020191706171067,-0.04492122927990353,-0.09244397577092542,-0.08885670993497435,0.005187499992924493,0.0737514149728964,0.03212624342646963,-0.052783357606250074,-0.2590383880838397,-0.08603300247248766,0.064544508326486,0.05634534971280114,0.06172050259841329,-0.025463235586861983,0.034707776216713615,-0.04710247877283714,-0.10497951268043493,-0.053633477774111135,-0.11127839198842986,0.03490344045598288,0.04133553635626107,0.007344472332728442,-0.004608539000616852,-0.0317805346943928,-0.004251676252373382,0.028371972611002026,-0.161551559260252,0.03822088000756772,-0.10095662929655616,-0.0660926944311042,0.020223976231380704,0.05855067432042677,-0.0049967682294658495,-0.046878051624489415,-0.058338366271184786,0.009085012441945772,-0.06276080628589407,0.04766020040066434,0.005291167642430764,-0.04057516100602657,-0.09164067056942297,-0.029643357556359447,-0.13168555545674976,-0.01187900370848494,0.02809541543717202,-0.12012586586168526,-0.09376236222361534,-0.020004565276037195,-0.04079159840756337,-0.009172324554707246,0.03882645874926293,0.14350696522822798,0.08907447113449972,-0.02700416850452837,0.17029068332447944,-0.03129598996327155,-0.0023078411536298334,-0.06554339594404693,-0.056007098647237546,-0.05007799673917653,-0.08340088492594268,-0.03074083139429028,-0.08608990243011393,0.10605021742157442,-0.060847875947043883,-0.13086185871340636,0.09397950229073443,-0.013598045831534811,0.023761996741201333,0.011844836658476769,-0.09514299658272767,0.009383716263858085,0.06784214345736314,-0.04135104188116108,-0.038733374298484086,0.03637803536939027,-0.10477685158486688,-0.06386518195795132,0.05625478637847129,-0.028772357528957772,0.020157030389461525,-0.07487338420807843,-0.06586918732445887,-0.0053054108176207255,-0.03051476959855467,-0.07468552243619257,-0.13955603886528056,-0.17589928271153646,-0.006537580906402527,-0.02015166366667391,0.0854421209467559,0.05998071529956694,-0.004697893320652444,-0.03154513374332235,0.05175825286642313,-0.1655413978028355,0.0020227500349748514,-0.17695550192497045,0.07362744184234823,0.016039457633441726,0.03659637514396676,-0.007181539872766724,-0.12575608746877784,-0.05140972210643857,-0.11961147006672461,-0.10226633012068782,-0.1372698623469169,-0.051851742666971935,0.08417608637289035,-0.000642017757527918,-0.05788075876230201,-0.10713628445853955,0.00035005183648295277,-0.02321119020659089,-0.12125567462219844,-0.028964336629008193,0.0338976856217502,-0.058348750142391055,-0.06781476637750619,-0.046490552448851766,0.050976455989420376,-0.011537594669404813,-0.0026292986799859065,-0.002064896061012133,-0.19454069956492198,-0.08348058193582981,-0.07087222351441111,0.005353451502136845,-0.04306242212890962,0.06571784809887218,0.025120874128189384,-0.10992440421248471,-0.06419611828729757,-0.0014932268228443576,0.00919411444135387,-0.06199445790522294,0.1392382074375293,-0.1173229581555451,-0.06457819166645656,0.03558919908729885,0.027725177154647323,0.03294281785212564,0.1155143993686654,0.020773480072601633,0.005584664425459466,-0.09633922020553523,0.0970677964620227,0.025307396567216763,0.005660257433343982,-0.07717284156768996,0.04258941312916577,-0.10982148975040266,-0.041013358047450536,-0.04017005322360495,0.13386278885616926,-0.04298371734775556,-0.020345604438657895,-0.054747024928915186,0.019970981288263592,-0.05478826089001447,0.015760091127553277,0.04971880862439944,0.077917193995757,-0.13601284589537913,-0.1119802260530178,0.08232333048443542,0.10491012611380465,-0.003703386755259127,-0.0259099845893776,-0.11574636210039908,-0.05872612422748272,-0.060750330964588165,-0.035770210945033354,0.09208972457939489,0.055537230511546826,-0.16850858881574435,0.11506212322310554,0.07460405013309816,-0.06319304311325256,0.023141587244633593,-0.006330730054983956,-0.010492716725036568,-0.009598855978876053,-0.011323536590164234,-0.04479704822177199,-0.04318114499655797,0.010986861607860192,0.06684136149659554,0.023690652950973615,-0.04244421775190461,-0.12550257739230905,0.002547382324922527,-0.11208144183224376,-0.018159088784991093,0.07560767904015282,-0.08890626383414782,-0.154914088730427,-0.02931477703549435]},{"sx":5,"sy":5,"depth":8,"w":[-0.027331587809598386,-0.05319012910174613,-0.015847622670858846,0.056775274513950515,-0.10412139975805854,-0.05356954862053199,0.00007149215838273936,-0.1227970473466088,-0.01350520233566753,0.08727619845667445,0.17627899199684247,-0.015364461700672299,0.012977481885799004,-0.13413515280180055,-0.05438351815319678,0.018308325977628444,0.10869300374634695,-0.1075421112184287,0.0032342363243459127,-0.15963519631555664,0.06825747501375243,-0.15271195916437696,0.1486895816417953,-0.11163778838725755,0.07868847843169365,-0.09228710831166645,0.03969982147004198,0.002972647659407482,-0.0047256605719410765,0.07202757389899067,0.022172967878506485,-0.1994207228988898,-0.10926781335993054,0.053343847623959446,0.18099019787100457,-0.0684247949125966,-0.09828519035904812,-0.2659694775582719,0.09588169046557687,-0.19016201235868835,-0.013554247868388635,-0.09659383491813706,-0.16592689086545873,-0.0509883530555336,0.08014964147480633,-0.047092944126322915,-0.02603541056335928,0.01169334685777201,-0.08687852666992,-0.04372687577309724,0.08505789607998927,-0.1117899854388059,0.12970906888487926,-0.17997548755624213,0.003651419549801792,0.0028643715345931207,-0.11308058461570636,-0.06102030621587099,0.14968231483317956,0.022484076952813625,0.07972293713746822,-0.153730283961561,0.008899079520258216,-0.01796489357716557,0.07553837066552073,-0.05930145577635375,0.13483482703236313,0.025559714996230366,-0.04215850304220774,-0.07289307754735107,-0.1094162169832511,-0.009113854817712277,0.12095876454136276,0.0868657589258569,0.15962038659554562,-0.0905417727018524,-0.10823535913737109,-0.08015626410447507,-0.027108045727739158,0.01817241090675147,0.07627101508181208,-0.0787834772297913,-0.10325980474374093,0.008488242314630034,0.012857364550079376,-0.20760496574818177,0.038695935657040305,-0.1135377354635281,0.05377598784336904,0.0037511315685877797,-0.0718436676038219,-0.11257315941876439,0.11547320543618997,-0.12181955740887876,-0.09663891147750457,0.032933973348930494,0.006573319490447341,0.0071818048890638,-0.01554706446740695,-0.019944483455127754,0.04159899962670676,0.015243965305798749,-0.02807481572830988,-0.06680992739654987,-0.0822623479190789,-0.029468217647917096,0.21556014075557872,-0.12867540658079035,0.028340737178980627,-0.0832163620103365,-0.05819481384808442,-0.08456171173441433,0.001228177442361426,-0.1269892895247325,0.1602584297336174,0.1147311322004166,0.1077884744459314,-0.07088207233621664,-0.021737893677515503,0.10229242274076743,0.03285321827389368,-0.1783773600277088,0.08913164084849035,0.04355210832872279,-0.06053656502700588,-0.1901851431069271,0.05325110727066606,-0.19369053633277653,0.025729892576990984,-0.04181375320612042,0.012603298192762912,0.06844675017585086,0.12137859048161778,-0.18743945511510313,-0.05637162818665014,-0.17154053795353533,-0.04125391213294189,0.15292212856008264,-0.15330611388312718,0.009898887550654297,0.09213525147889237,-0.13386688643881303,-0.17843952878721164,-0.029223383373670708,-0.08960004407678246,0.09114111571523992,0.20252045745759414,-0.12057178669606537,0.10319650367534464,-0.19344437403628006,0.011221800866869885,-0.0387183918814918,-0.14223984276833238,-0.018420941164992446,0.05764187092000642,-0.05993542735769196,-0.039283223547515,-0.13649825638347274,0.020205158628642684,0.08304754890156972,0.005628844257230658,-0.016202096085805376,0.05085351073827185,-0.05689371820036541,-0.018811039706474162,-0.2576305757263063,0.010390081109801531,-0.07584511465740511,0.0884315742892422,-0.008084306096574508,0.04982403500659987,-0.06599281939322445,-0.07439058258427166,-0.26240847878793144,-0.11715588793456169,-0.024641580189210914,0.06348354564289775,0.13713993389100992,0.11783128419281505,0.02652150606946143,-0.06102113459446532,-0.2028004008115661,-0.06612922017812244,-0.06853971924805519,-0.06314304551053736,0.18340369059017925,0.02422094494689626,-0.14706374662806893,0.007798012669701577,-0.15761127695433966,0.03381765802396996,-0.17997001998573808,0.16257712194699417,0.0070995254277927446,-0.032145074383493705,-0.21869239827470505,-0.04891302997798805,-0.1945640835144568,-0.10691194117884315,-0.11705400140500272]},{"sx":5,"sy":5,"depth":8,"w":[0.024465437948879946,-0.053132220142167653,0.0028007843594378542,-0.06435832962638682,0.016737869684723208,0.024556805571533776,-0.027335134416526366,-0.12323531542729729,-0.09438113166346193,-0.056622246976378805,-0.011104154162471793,-0.07454168357268329,-0.040676227241239205,0.04109710496508165,-0.01846349919188454,-0.04375452276410309,-0.043699324902594386,0.017186062154930716,0.02549956775057702,0.1190214042469708,-0.006212495634667331,-0.09521896659243947,-0.05500726920971782,0.032769067506128395,-0.04985056198129948,-0.02514440534030437,-0.07642782522157723,0.09686351721543601,-0.040102711733792144,-0.026489980287303785,-0.019744144491239006,0.05315647898537153,0.030412757806471423,0.04188969482099296,-0.06297753289834389,-0.004070020647654931,-0.015071374109281126,0.0654470615530436,-0.10400667498915443,0.07249244130532721,0.02044359859717549,-0.004208087649457893,0.0398412200135786,-0.02333219652094881,0.06583033332015698,0.04413765897954596,-0.21564895769670617,-0.09345746704553923,-0.01780587597549153,-0.03484895559887412,-0.014978358414344155,-0.10408434561306185,0.01548901636305233,0.08271344904505479,-0.025626841084896244,-0.08101051319782795,-0.05119920466163604,0.0696663173051467,-0.004458266795201476,-0.05713398837377906,-0.05538747310714788,-0.046404434861760824,0.03520041705614191,-0.14675201586546474,-0.09786705914175808,-0.08147547491563839,-0.08002960427879359,-0.03909567915545382,0.007080157076617036,-0.10238808603182958,-0.08955006725849214,-0.05231203016195692,-0.007006243234559119,-0.026095622859685856,-0.08538040015530107,0.015081892106972335,0.042003976395186056,-0.06689893418543083,-0.0790836703482648,0.02920444187869858,0.10763502360559944,-0.040518833875177164,-0.06880805857729952,-0.03178579975493038,0.13349582704854127,-0.037723586373531647,-0.012923366467659568,-0.0016835513100982781,-0.15558894767435497,0.09710417273950464,0.004285096737833699,0.031894433792195094,-0.1460826730522744,0.008221869258123753,-0.02067211053632067,0.011202129041919437,0.04319491112863635,-0.06650163767792898,-0.07209618816200697,0.005441452826424855,-0.03282990241029908,0.06426031776974737,0.10282496422880609,-0.0010127567881056381,-0.2269888207803805,0.02460241577320031,-0.04953158617343817,-0.02883818502603787,-0.022536033336479543,-0.012405712920417245,0.01704170454525019,-0.023244751128379315,0.03250826218611134,-0.10679618979083441,-0.01157587552927544,0.06398832298925733,0.056371640064221844,-0.07515560676381647,0.02037253495427109,0.061255348919095884,0.0048225914134693735,-0.004676125173520963,-0.026033287710766306,0.031910332902638366,-0.031031225067510167,-0.008822916601936197,-0.08004443355525856,0.07776144411196886,-0.07022551534983532,-0.14999963012345066,-0.13140174935658971,-0.05222796951034069,0.0025677326580700235,-0.08492661898848021,-0.05650582566090361,0.0012133365194138576,-0.017228558611414473,0.07931653872808775,-0.005674947785243266,-0.059458338427179735,-0.07780118816478102,0.02900420519826828,-0.14908928144497924,0.053094459966986515,0.009428919051335059,-0.03944655102913176,-0.11967376782662419,0.07069829321713428,0.1193972629521546,0.03743314650775353,0.025068116377205078,0.06555871506289265,-0.03167677119910799,-0.022138251363946575,-0.07267296643475848,0.12282144095708215,-0.04128143726056909,-0.07381766723766844,-0.12435938746410159,0.01577767671240509,-0.03880082240068013,0.015840793632802143,0.07401271283151319,0.003455148213434095,0.15453870220272742,0.08141047332408187,-0.130852157897897,0.005066495853184617,-0.06923199557997821,-0.04746698883529849,0.04372210937996535,0.030849223342093574,-0.07600517002569301,-0.0862962532228099,0.051203447780773556,0.11692980024466613,-0.12163199158796557,-0.10716852169732519,-0.11594239083197881,-0.005045485434328029,0.012288408940002894,-0.1420860993116629,-0.07496012676479333,-0.07111186324589028,-0.02477247671211066,0.041462030863261674,0.10057110580044828,-0.0774059732811169,0.0005462829763359501,-0.0372413137527033,-0.10375928386783836,-0.1062817732467551,-0.01633325888634171,-0.04121900710288033,0.03830746487753741,-0.14685138215972565,-0.0525338838407893,-0.11096289980656661,-0.03605460660336818,-0.009960079848866177]}],"biases":{"sx":1,"sy":1,"depth":16,"w":[0.06216995441834376,0.08264028746199199,0.05690778749419546,0.056527960395701286,0.1378525316927264,0.05257102749138058,0.056329475198822136,0.08757683963197739,0.07244686629778044,0.05220509970714645,0.08435281970569022,0.09165884112962851,0.06898633134768027,0.08593938295085304,0.04949928488489928,0.09491601623197653]}},{"out_depth":16,"out_sx":32,"out_sy":32,"layer_type":"relu"},{"sx":3,"sy":3,"stride":3,"in_depth":16,"out_depth":16,"out_sx":10,"out_sy":10,"layer_type":"pool","pad":0},{"out_depth":5,"out_sx":1,"out_sy":1,"layer_type":"fc","num_inputs":1600,"l1_decay_mul":0,"l2_decay_mul":1,"filters":[{"sx":1,"sy":1,"depth":1600,"w":[0.0037170477816250666,-0.030879148246569246,0.0692472265440086,-0.024988438119730186,0.04604074653061937,0.028920140362481448,-0.003081307985134449,-0.019189754977101525,-0.04515495787341986,-0.006739793461865012,0.05476545868864592,0.05227041615559717,0.0323577594717849,-0.07842466674090096,-0.048766766504629494,0.07701102177560477,-0.019263833917364154,-0.10015899497896798,-0.038562083653119576,0.03993753077386851,0.015662072221325662,0.029681427863883905,0.06498272620107291,-0.061004410601836215,0.00843623502208763,0.016007861013282196,-0.07240654387302037,0.01864280809685356,-0.01624934948160618,0.028299286098557967,-0.023418912343830346,0.022427629168211467,0.029056385503459684,-0.023170090665472855,0.023728145788195303,0.027322172510571115,-0.00022615357503433765,0.03460960146836187,0.0006481443610447443,0.04187614445820883,0.0582994119416631,0.045232280999810255,-0.009947010695718378,0.008635709986751394,0.007804551621915139,-0.05237025532531765,0.01299212451474831,0.022152321761238054,0.07388022645845276,0.014806542544642061,0.02178314748582183,0.02912012322292174,0.08656075704388096,0.06724518855294932,0.05531809158643018,0.021907711990356394,0.023732694977170794,-0.02009562429707591,-0.052039433943754126,0.003828616107116712,0.04333348282427115,-0.023538600960649844,0.00639802860691334,-0.03185546958759822,0.051294289123638974,0.05936388047775043,0.06844593300636766,0.06435324662884481,0.03444740550981334,0.04804493752845838,0.037779143313587484,0.014972750374277262,0.03836376590536047,0.012975159539374581,-0.052089265473113884,0.031280078727006756,0.02581187866852748,0.018660434312167438,-0.017070786056760583,0.012394586990148102,-0.01654179557828735,-0.01468676540889887,0.09192852348938915,0.014099239563485907,0.02372479276723657,0.07239793109994594,0.051440907949168724,0.012923546180216683,-0.010360506788110386,-0.0056159495996114485,-0.0877093487283856,0.04471705101360746,0.0002914338646894702,0.05768986784700451,0.03346534201797726,0.03840897138292054,-0.01922521224729511,-0.004250403565876558,0.11157051454753632,-0.01770923231156339,0.03736640149007062,0.03383384006364623,0.010403589411188817,0.032435973856421496,0.027473727920903298,0.011860080021531268,-0.0440103072520948,0.038294435984820865,0.016384817670960367,0.018980838120391183,-0.0026763628926773867,0.02324525887501839,-0.038692257721164504,-0.00792560560636656,0.06414174546696853,-0.019829791053714914,0.05760826831316273,0.030191673522130293,-0.009509954521312992,0.029361729713981304,0.020908993373212826,0.008581564403511831,0.007230605297118602,0.030273537306730606,0.01969083148525113,-0.04848635227146438,0.02274857628161574,0.03378019820938877,-0.006279629816707882,0.04473476054247373,0.08200442162081704,-0.024173394053514857,0.07596110929648472,-0.02638153183753181,-0.0200271031513764,0.06820641710869395,0.036590172700576594,0.00009145244234379203,-0.047540748772394066,0.052667575806425074,-0.017019572310634643,0.004577873906712506,0.019430073533460015,0.03414824893863679,-0.013026525983512106,-0.04434732573953226,0.03728012244942285,0.014307122795303226,0.07990451156120663,0.005733739311529115,0.058461503630732665,0.09512670197612626,0.06854457752747495,0.007124456838226845,-0.011274661770821714,0.051485614627904394,-0.0010835000953812882,-0.06403796310520914,-0.038661215104321404,0.05654646619901911,-0.05094359330109128,-0.07680559412950874,0.002622532751437777,-0.033094637869278104,0.037127401925848375,0.026216373563638054,-0.03907609637736715,-0.0531956571485685,0.02459891735476082,0.03110412771587566,-0.006475470213227358,0.007029977246470973,0.009394311995533332,0.002046921617648763,-0.029132628945455975,0.011409854342483141,-0.05408515072604614,-0.018935416692949035,-0.022259289607526832,-0.05489537730025471,0.029050629167427112,-0.0341942883269207,0.03797999277317727,-0.06250396122910615,0.021567007118200997,0.0342635332916993,-0.05412808927527525,-0.02088231880743023,0.023793754608541544,-0.05527480047432576,0.026725950684621354,0.02414148351650267,0.01443905997319982,0.02238674372261127,-0.03811601002135995,0.045015490173177714,0.0724855944667003,0.03425354875442182,0.06738031358995764,-0.02991815792667578,0.0006485329716299161,-0.02691780474965338,0.017302224867035323,0.016089631797551695,-0.004965086444122448,-0.03519785285345145,0.019727810024845686,0.0010081190459859846,-0.036860830245645494,0.11274157725971791,0.034692128201357156,0.0448895311500166,0.07066140842762741,0.04002830484086377,0.041825510762074206,-0.002047560272576873,0.03547357591588665,0.04529535954016916,-0.016494465411036184,0.13269681507801473,0.029088546018896398,0.002849969333707586,0.008400957972624532,0.055634047901279876,0.014121825877457325,0.042682313743357216,0.005923216981218709,0.06095339999015778,0.09871559078111651,0.06116265848292452,0.026062444818142617,0.04932094628290405,0.03087567586406172,0.06877360733568963,-0.017695331613436213,0.033664473777760204,-0.02059471228445171,0.03630215197517985,0.01799288408830185,0.01932060361955053,-0.061434430138554444,-0.024262346497285217,0.0474438465479314,0.002065570673747718,0.09333675860040005,0.0691557116589803,0.019145990283666568,0.0718343451097196,0.041787187165142584,0.02162808460081803,-0.0397823488412444,0.02901939043532458,-0.0348885976792611,-0.003843023295187172,0.04325924792744795,0.005599587290368696,-0.04336842901552701,-0.06867782646875445,0.048288912794364425,0.01570942225347783,0.017032547125815527,0.020184546208673573,0.002219242421605632,0.04101789746380841,0.059440621476789544,0.0214265080937808,0.03216133737576433,0.03642196648205705,-0.01620903638738996,0.044517241659140325,-0.06341109123387888,0.08391202350049493,-0.06828911338847683,-0.04041255181944302,0.019631621697889293,-0.07440855686835565,0.07914566479316502,0.0319269357943561,-0.026838756584259476,0.10988608453630312,0.04042898746080312,0.026591196237441692,-0.030026469522767194,0.03995828203268341,-0.018057183014430572,-0.02656707442637537,0.019291243154499517,-0.029036541898024685,-0.036744122274528265,0.03452320524152014,0.12242913978070111,-0.059018117851759345,0.06589956366736033,0.005050820553251057,0.0409137740074046,0.10371892486472466,-0.01421129420371411,-0.0396105284344089,-0.007894156983727706,0.03317242040480616,0.008914199389766765,-0.028339360594205592,-0.029073900632310037,-0.020544832229217765,-0.039443836633005144,-0.019590263626306174,0.08350118135912188,-0.06436572264920032,0.03083296602505082,-0.04247762935543931,0.010487107592592703,0.062267699441706674,0.04330470211531567,-0.019854098069883516,-0.032548660586021114,0.07703900190146927,-0.025732343854140003,-0.029263561676595717,-0.005566817388209562,0.03823070058091072,0.050353910393090964,-0.07074956621734861,-0.0012109604316925505,-0.01081600473606244,0.0905045502565594,0.05062046230565031,-0.015459002694880377,-0.014313047484451955,-0.016388921863834165,0.037262058572108965,-0.07801336848893121,0.024004802664602268,0.0011057861963806336,-0.005945059272513163,0.059845878094378885,-0.0056292149225858155,-0.014028939437840173,-0.04233258320239063,-0.03210097574626899,-0.04094275453631874,0.018086515414431695,0.03901847447035843,0.0005018260940566817,-0.06889105420903659,-0.03413748556881567,0.053056453886751266,-0.0078259451485006,-0.012679987175087783,-0.005503844258681426,0.019657944477924297,0.08854355632179574,-0.039596403804837164,-0.0005318186922817257,-0.014107296913612287,-0.048482820352683365,-0.003567884176342859,0.07312922695653155,0.03567421212142183,-0.032133904475588115,-0.004408372908774277,-0.02411751377320655,-0.0026265771420347097,-0.06208415273475973,0.005751309291818017,-0.0078991594659592,-0.03931717716257564,0.05694266641038345,0.012356920052538198,-0.006353682144594026,0.009972492404725787,0.04584993047654231,-0.024997146800833835,0.03643088237836241,0.11848080014101336,0.0246125508253953,0.045163526765864125,-0.062013287267860505,-0.004314710549106107,-0.05011595406078312,0.03595347867416219,-0.019017292887260437,0.03215161651720743,0.048455097466986397,0.046509199545520505,0.011402285177618581,-0.013662158927725298,0.028258432071860393,0.015447481512785927,0.09907437845221016,0.04489047866436512,-0.026680139533728435,0.05020385947006498,-0.026569013916171662,0.0273810393391239,-0.052180677221390054,0.060371206478339746,0.02008267930199211,0.06300572516958614,0.042594191820131355,0.03578955660536581,-0.082083929699821,-0.11251481767229442,0.03999046837906367,-0.048176764344170515,0.17300200674256572,0.07873474650303955,-0.033028855559581585,0.03474288922505782,-0.018538162515125953,0.034265746956332534,-0.11528883089175598,0.04057986138226482,0.02974191279776267,0.012173915203384515,-0.01698254104796195,-0.008222360785813574,-0.058445522715577236,-0.06988500969887954,0.007953302034851641,-0.0056217191815699456,0.10404130446315399,0.03306643315107575,0.018948257243499383,-0.010134469952848377,-0.007049020859184301,0.03928751807066691,-0.035230147877411355,0.0403406407734626,-0.011039897677207013,-0.02240687338335715,-0.0040910292430308744,0.060133433857971014,-0.028229209804093772,-0.08781397691924189,0.04688570376163391,-0.06366091035591935,0.05615972432996103,0.02347096123828301,-0.024951149444002223,0.04046001607104351,0.06697594289100081,-0.0365837159468192,-0.02285440596122909,0.020511974160838616,-0.05063350986682847,-0.026043441867852433,-0.02255697005225637,-0.01948636572749212,-0.059686986721548096,0.016950129457881952,0.10069982504506472,-0.1311978711142248,0.03674928806052564,-0.004004558526393667,0.014386753893234799,0.07364546426913983,0.02468727294748402,0.03510674180427907,-0.0503554926220138,0.058810059236615204,0.002787905228147442,-0.009129819248972977,-0.051846829519401436,-0.00041081323079412654,-0.08956218397536952,0.08505816283651259,0.018328339295993847,-0.04649634983552103,0.04332282843304931,-0.06187060782835498,0.017915233835486995,0.09427220910294834,0.079670201910006,-0.02208382329649716,0.04369713006037816,0.08301638755014806,0.02272437970344006,-0.024582798659907614,-0.05723399169961162,-0.025088372931629185,-0.027804306422685447,-0.07085195043092984,0.027251541858687667,0.014001990315996929,0.08797732173863469,0.051939407533797576,0.0708845480508302,-0.04119763475342687,-0.038503672530374775,0.05208577062393871,-0.029966279166241862,-0.019918529095030727,0.025477666085895287,-0.025014837509573864,-0.012095234481792894,-0.022172875479092784,-0.022739745502319678,-0.0017564386958416368,-0.000993396667390747,-0.07695243239435658,0.09449517456367794,0.008214842555604184,-0.05261465863348608,-0.012023288021918986,-0.07386106646990034,0.07020035894033415,-0.06741379685171665,-0.030310430344244226,-0.0005315044840426985,-0.007938265049085281,0.01786337902382533,0.0005623848227906904,-0.014367451552548005,-0.051306285229722075,-0.01641390404119341,-0.05477106155556925,0.08177639793435838,0.05536122714322324,-0.06385189757041274,-0.046395468936683316,-0.1358820298343845,0.04924658858639222,-0.05395206642001021,0.05434701110758267,0.03690627990424739,0.012472577742382725,0.03273076900797382,0.06649488154239114,0.003149395810508483,-0.00875019053305813,-0.028050135376572864,-0.022160575212032105,0.1462635671019736,0.018557646327066624,-0.02287126694241779,-0.0015099126460333182,-0.1303109014259646,0.03487014210946751,-0.05490450004162354,0.04584040785343859,0.006814909931925583,-0.046448491669296835,0.04902103795799806,-0.008141494133986264,-0.031122425038122323,-0.06204250574014717,0.021509384927702734,0.006412965892816409,0.1325846158750107,0.020016331587750683,0.018620069939441333,0.019314825564694594,-0.04670736678862586,-0.035302851813410224,-0.1647876629256043,0.030510738067072708,0.07417131001113399,-0.004573147421259909,0.0023677224454354915,0.04595814294546184,-0.0279855364473073,-0.10058255223731102,-0.03652860671416838,-0.060822707407258744,0.18399946696977626,0.0261431887475308,0.00973634408328068,0.032311507512399466,-0.06652180416210826,0.015863138068120525,-0.1414553559827273,0.06644254296094,0.0011526602650887316,-0.04304352716704025,-0.018700559067912917,0.003910129170310081,-0.056059037424742476,-0.09826149537012664,-0.0315009630710224,-0.07012246971707235,0.16675309404201694,0.025597048072652197,0.06146341286193044,-0.026440091885424365,-0.03005209575296124,0.03418817533346927,-0.149862768058582,0.014061658699316179,-0.019916301634747533,-0.017480969154087936,0.010717907375337468,0.007440316855515627,-0.007571671814818911,-0.06676493448603428,0.06115647241497504,-0.08648117126022867,0.04110910463115231,0.02669566855687353,-0.04448315356894149,-0.022371374970757075,0.040848286390486474,-0.022565434891545267,-0.10931951237457163,0.03302273108461532,-0.03185987218327894,-0.015708999058941315,-0.014137740897464087,0.010258274316374525,-0.08321789376699043,-0.06284115613265141,-0.00997930966552512,-0.0605745116947296,0.07581057745186874,-0.002622672901298416,-0.0011697053447313624,0.08976013821298301,0.018727828957792125,-0.001680777280596092,0.009797265158787552,0.0473109717458057,0.016415835378323702,-0.014400342328967086,0.0049701399266054635,0.010256995334309097,-0.049466995837690805,0.07559642019319267,-0.027102306554066584,-0.0027225017145207763,0.06599202073187291,0.020307082459087356,-0.007421203890886612,0.07724978957780217,0.10055528607877362,-0.04999626552938143,0.019746026282931504,0.05383404140516001,-0.009649322786288338,0.013393862927954091,-0.03338307263894566,0.01048989346426394,-0.019800464106757464,-0.09106031810245209,0.004695283959851768,-0.04631892708216809,0.10920931893285651,0.02256302723032323,0.04451950640957209,-0.05516452729244596,-0.06409990836602805,0.020585109947860506,-0.015940126725163373,0.014663570475276994,0.020382171563060065,0.01402138657886783,0.03189633027095298,0.04355060307548906,0.07039014993742825,-0.013210711035854094,0.01058769533794736,-0.05327090376163874,0.08013568572143406,-0.01265735665627458,-0.04450331787929871,0.04823994555258585,-0.07627059000838347,0.008586301677483425,-0.05420122063955893,0.0018858138217725557,0.018435907978300314,-0.03681848860515627,0.07399253626713967,0.016684516462659057,-0.03891682590587572,-0.04216036166460146,-0.08215057903566284,-0.06477013925381957,0.13324051549153157,-0.014488790215535471,-0.06977842002413381,-0.003964102956144203,-0.05564059005876341,0.008442609599677268,-0.07616186419180793,0.03173172064138407,0.029940373402841152,-0.0682836093131988,0.03961011180210024,0.024301220414564142,-0.02355020512936628,-0.07470477413824937,-0.05671472657456925,-0.05815330547301574,0.17489716174855663,0.05896711721524524,0.03321898996774302,0.06193373598358062,-0.011728162658524081,0.013214592663020688,-0.03858602550681483,0.023949275227584197,0.0074935651674625835,-0.01811332755085819,-0.0450298190423073,0.0795855431786289,-0.060076225876100196,-0.09068416486106243,0.03740167774320891,-0.07252400878876639,0.13722169301263498,0.05460535435355398,-0.007533390823181094,0.04748338272254618,-0.044140881547742435,-0.01713029346013942,-0.0932122402321694,0.0509764121343574,0.031025716633017286,-0.004078793072176794,-0.017075628350661096,0.01714194340196047,-0.05868867149040065,-0.09007883749652354,0.024334902917487973,0.010809263562777428,0.11547636545008674,0.05195418773077705,0.07328838908077376,-0.010699442699630059,-0.00729363134593431,0.02034681103152154,-0.09204002778055066,0.011783947110734484,0.01664681218058392,-0.07953125812728853,-0.03731975141253938,0.06512678771164455,-0.06637287688296727,-0.11873882038600339,-0.041616311493107946,-0.06873664484138355,0.13098167756001494,-0.017340166701914343,-0.056564465845046166,0.06080952808335357,-0.021623456746814,-0.021777588315556342,-0.07053306088017654,0.014728558665015554,-0.01134638116353582,-0.033267358576634945,-0.010644689530242191,0.0022176913175778776,-0.08578810969177662,-0.07250711861106317,-0.009834748515358458,-0.10307287523065323,0.044525560600467064,0.02988407702129078,0.01139061455855028,-0.009643336816673832,-0.009659050525960272,0.02777940247974836,-0.07276617009185601,0.0067765873113055895,0.01682891273543835,0.018445723267461255,-0.014294851224214604,-0.0411835813872156,-0.10916110905863677,-0.004579800617007798,-0.026920929084651404,-0.10494571137020708,0.12185768138312703,-0.015622255248905929,-0.020116836900525813,-0.017572463575348116,0.04466334259481456,0.0023084497252317884,0.034909634812234115,0.07027905894010675,0.0021606651577389894,-0.05400408113586174,0.02486237532718968,-0.0012295030539980329,-0.0539853385894279,0.022398226575918306,0.009255516830144507,-0.04105489462346458,0.08221353821644606,-0.05173062306549871,0.02682701972239054,-0.022402544195078544,0.020893903848536035,0.015819699513649067,0.027924138575032276,0.05806128753574492,0.011376507722825321,-0.054222962680866155,-0.044383276781595864,-0.025605221437144887,-0.015691312267678538,-0.07229575073975253,0.05382378948426771,-0.022564090692408945,0.05801159400427414,-0.04009063163119825,0.0410813280017571,-0.00004495821253107596,-0.05486697285020128,0.00433758078763326,-0.007771582006247519,-0.005472422265783643,0.012091154136146582,0.022041427828667973,0.033209410674176876,0.029986131255082524,0.010926503463545501,-0.05878460296094572,0.006797682263494745,0.002346809857434323,0.1056249843053366,-0.03771607618298608,-0.04927579684677121,0.08425938726561155,-0.06942060342424221,-0.01272006201956881,-0.030361776374276738,-0.02360651691237845,0.013622888843135044,-0.025491444492430404,0.04227208874030771,0.043136778018642775,-0.0344518026451287,-0.13499146792712424,-0.02163996083571791,-0.1003346879712797,0.09266812473872885,-0.020759981388152646,-0.010631824556495586,0.011663680893691884,-0.036894803410161874,-0.004936614831267991,-0.0705783808977844,0.027237661404556728,0.01940988695464701,-0.03384285938945014,0.014203822616555032,0.02759787157080341,-0.07790561012230085,-0.01829412148754306,-0.0014166822498083926,0.010388489867023998,0.11509976824247929,-0.055315456698490376,0.033629948329763404,0.054435287648731144,-0.010062439833149923,-0.06292592758664017,-0.04753420724325343,0.009350512942617469,0.022378303522187316,0.027618510855666637,0.06175109818289648,0.021846252104456596,-0.057628190849946484,-0.09296463045627981,0.04961676015593065,-0.08481273668465754,0.13276476305277088,-0.0552048083993775,0.020294044944615692,0.10410383991373189,-0.008201052025391922,0.027449982568650916,-0.08035416546418421,0.06199378298320126,-0.06588096891147163,0.01604129421497123,-0.014117028581127315,0.004838179573353757,-0.046988546764915505,-0.0661788077591245,-0.03599165866121714,-0.061436015579862766,0.16932494990613686,0.031586103432672,0.022657635140182823,0.06765881902632091,0.006078352618306857,-0.03012641553351536,-0.07011927874461261,0.030928209226554683,0.023367816665545483,-0.013105468451324223,-0.01047733054477128,0.06008610533176637,-0.09975562706878241,-0.0938306362771186,-0.012071192246347716,-0.07327662515191952,0.06673968794443948,0.0004250949045221993,-0.03852998967948082,0.004485114471014461,-0.08925546647794066,0.0219201231657821,-0.06448006501770354,0.05410251881850056,0.024572523360613895,0.000010525529615420348,0.040872023435430005,-0.033519391672738194,-0.05026170232081318,-0.038840233097122756,-0.08620969227137928,-0.08039640178202578,0.09358395666684181,0.03987624387628431,-0.00853996201063634,-0.03446753152232809,-0.02762169566142517,-0.001838080949869389,-0.13298484997555948,0.06327409884669587,-0.007276163150490968,-0.0095676784575295,-0.004221381852697874,-0.02324599384742419,-0.02311320477899123,0.05817004978732792,-0.13201501946446206,-0.06756140184850389,0.05954259129231019,-0.011140996722380822,-0.0014464153300380175,-0.0571764334470467,-0.00046634260833466,0.04615125091459972,0.029497072881540926,0.031027766597610862,0.022941942571672834,-0.08423957152402785,-0.0152228165271586,-0.031285263188012946,-0.03941850407221341,0.014050289282722637,-0.0219236507341863,-0.10437587516402146,0.022415547319646855,0.021909820904086136,-0.029938067436329797,-0.055440102280155674,0.00376323713742583,-0.011217633899419844,0.09636570005617962,0.0898527805361941,0.019536798964848726,-0.04907307872093854,-0.007076701930412597,-0.06835445024590557,-0.07457288364368277,-0.21459232524245966,0.10731842787860596,-0.014540654047792978,0.08703671576621985,-0.005570104933752899,0.06690214699620205,0.0015068295712412035,-0.050991763975841896,0.05910390438088621,-0.03071799568259315,0.02355219840956591,0.023418832226128162,-0.07166235128167152,0.03817612184323933,0.03705017710679164,-0.007162815488016135,-0.001044655673528233,0.0004319713207564665,-0.0035083040784915295,0.06466743011485639,-0.013379702601738971,0.011730365602498712,0.048406527483870775,-0.04565866201450974,-0.06376087584624981,-0.02565711246693234,-0.015224159057003368,-0.009148456801927638,-0.020653624017199695,-0.025184285468914037,-0.0036914357609041425,-0.10779553358588591,-0.025746589762179268,0.02919538139191563,-0.07458694894035546,0.11404610229593265,-0.032549721598365756,0.033348559711672596,0.05121000641432496,0.005564356476544654,-0.003574346856734665,0.021747055670319943,0.02908456163875034,0.008877163080799331,-0.018552815492852502,0.011277685699410695,0.07131636469307454,-0.041605383143657235,-0.11104478043701978,-0.05025648215935414,-0.02967272919834156,0.12417125179054098,-0.009021162701291352,0.001621566284651602,0.09779216133099254,0.024049955684075423,-0.00589822185244448,-0.08013449529944194,0.040777552565830696,0.01607009237004071,-0.062011895322355834,-0.05212726262430876,0.021310595937881125,-0.05813873368734322,-0.06974565996042757,0.03578846489977956,-0.02604593036664583,0.050404878662493595,-0.017307172613158544,0.009546860308913203,0.08457912274223389,0.014617055617674145,-0.007537636007738402,-0.05309393794533738,0.09352976925659404,0.017916786549029482,-0.00503285947853882,0.047333583867479635,-0.003326702823658144,-0.05409466520537981,-0.04762239243568336,0.0009928440143576111,-0.05273236500090858,0.11868242050837774,0.02078033160038652,-0.04941137209144369,0.0075127958131834555,-0.034670443670743116,0.05194943175452986,-0.02440325978063628,0.014604612833651092,-0.02466142152821758,0.009108723117829934,-0.01315627794866881,0.029694322942398484,-0.025714393664377118,0.019951999466166055,-0.005922427517430811,-0.07773912333170725,0.0863116645755795,0.013120361924737329,-0.01014931395696351,-0.07970272867062436,-0.012838595970170574,0.022660454785303596,-0.051485009955249975,0.01899941093281093,-0.011579769686374105,0.0260201886501491,-0.05445360004533071,-0.04519867324574353,0.004114383684163561,-0.04793512208120223,-0.12126160174739802,-0.0661701878874276,0.019767035120878955,0.013904521043516978,-0.012649791469544387,-0.10059535107089264,0.02294750523925273,0.02209242548911683,-0.04833256110076063,-0.0008557938890208687,0.011229261831502186,-0.05611669983180185,-0.003618186207706518,-0.016441971483068772,-0.043320861435891776,0.11457201779394059,-0.09651218203962166,-0.032559925697860904,-0.025101570124073595,0.02987167244517626,0.008153503978359735,-0.11957457713688653,0.02068460395711622,-0.008883759424809437,-0.01899660256841692,-0.007780681250505113,0.026388096787130545,0.00522200299059057,0.015040349632335075,-0.002160044800348366,-0.01501984306068683,0.13274758607583698,0.012041453005077241,-0.0699652073317941,0.036483466622633264,0.00698461844451119,-0.011011778948661973,-0.07080706443789352,-0.004032564715035887,0.013605394965242696,0.07521793735993364,0.12585055797458847,0.04532401360202961,0.0005193197898701188,-0.0011237631820569817,-0.04904038640588013,-0.019416661068686003,-0.04710091372851222,0.035504149224130505,-0.040956762045888086,0.05075802853808982,0.01599500306324981,0.06208357276532856,0.030692005253286775,-0.016972440939575055,-0.004749995335313575,-0.05678519813725286,-0.011887606101360521,0.01596364677995851,0.04402674982296143,0.021801850893035435,0.022377439820803265,-0.05258361099490365,-0.051930282962072694,0.005708293414722735,-0.04365861349451465,0.023525729890174908,-0.021668823849887258,0.004313841199788466,0.05878353807530747,-0.00727946790910285,0.008236078479754877,-0.02803163997965004,0.005565750660226238,-0.0005945011326735889,0.006092673771648334,-0.02716969755531201,0.02015948750673811,-0.05487012411607345,0.030089913332443843,-0.017107520457567662,-0.05483215549558984,0.07295343726588616,0.027744444711608553,-0.03250614080416404,0.04824644722510245,0.020121120243400212,-0.035565460859296155,-0.054403997721382866,-0.007907958336863405,0.022633441814986714,-0.011199289919421403,-0.008403007782917582,0.06014409757290991,-0.012902833899718196,-0.0488893215109323,0.022015182285608507,-0.08496408807612087,0.04162815935898707,-0.01074060190331891,0.023778006830670922,0.10127235153442217,0.01661087405739567,0.04541404158459881,-0.0016568379482785039,0.05118735167069562,-0.001850184055428863,-0.009929368073762225,0.015039653646252144,0.03921514442401248,-0.016412670038942607,-0.020738643721370065,0.047652290083525985,-0.05119097460674571,-0.000162428768639776,-0.023063286672456933,0.06274154884691824,0.0879808697321124,-0.030182287337975393,0.04439627223965232,-0.007138587486171255,-0.020487578309724825,0.03466108756528172,0.011027962973336254,-0.020539224013327313,0.06878262834624067,-0.04679738175646844,-0.050885019781222916,0.019488683306971892,-0.044841779784307534,0.05637279451427986,-0.004060594111412661,-0.012792541461335486,0.0015125482207157558,0.004336065905369618,0.02213602890412976,-0.06729414142127049,0.049674083794810725,-0.029873748395201762,0.01057360790781105,-0.012716661096359588,-0.009946128889574746,-0.008456281691996671,-0.016311880827522572,-0.08812800359757049,-0.017929153635123304,0.0022870888098986725,0.03878750702789616,-0.034304047049288834,-0.0343533626729357,-0.043358144960067214,0.08541585894805308,-0.07022567081887446,0.010134803816880424,0.03193429707749908,-0.0032325478807507064,0.009745544133461967,0.005315895289074352,0.011295471941558109,-0.06798914276032206,-0.05649203432829656,-0.06174973204381736,0.00017188578785981698,0.024955740931721964,0.003985294557870683,-0.10986904266445573,0.02150568017233524,0.01856410384220522,-0.005975126771641015,0.021093938897788014,0.02688367602318468,-0.05835373017483196,-0.019644899584272284,0.01948159103974267,-0.01948322623323319,0.06788687044925112,-0.027143444695015867,-0.05796996393146202,0.014787836133761768,0.043629603943605655,-0.022438775391734413,-0.12251350201227997,0.037978142670962306,-0.01584437398738105,0.04275272963548452,0.025803457528826984,0.04733515103526744,-0.009154015365957294,-0.027359785605207066,-0.0027257449621808376,0.004065353757172319,0.03949528052042481,0.02514879820526999,-0.028064085088554416,0.08313829160712355,-0.026749535397821652,-0.023916263000626242,-0.09087002608073844,-0.007229763094832688,0.014082403913268062,0.06576508449443288,0.05362780033085595,-0.01676907445709567,0.01357090332596976,-0.050712718382653725,-0.030245854073248844,-0.011169095159120415,-0.04511798856008248,0.07040412672225159,-0.0236176995229406,0.020742216203675,0.013220739319211786,0.054159817287131706,0.042780528894784675,-0.02838000011870288,0.013040585015826174,0.014696894426656382,0.024063803161265475,-0.0033635230103285186,-0.027106552990324186,0.02931708024396975,0.06385070021760596,0.01526124776157636,-0.06321325359198926,0.1095532276758632,-0.019259462031046417,0.035539746929145535,