{
  "layers": [
    {
      "out_depth": 1,
      "out_sx": 64,
      "out_sy": 64,
      "layer_type": "input"
    },
    {
      "sx": 5,
      "sy": 5,
      "stride": 1,
      "in_depth": 1,
      "out_depth": 8,
      "out_sx": 64,
      "out_sy": 64,
      "layer_type": "conv",
      "l1_decay_mul": 0,
      "l2_decay_mul": 1,
      "pad": 2,
      "filters": [
        {
          "sx": 5,
          "sy": 5,
          "depth": 1,
          "w": [
            -0.06866900232733633,
            0.2582528729991448,
            0.12960069100480784,
            0.12587020944997934,
            0.08448096905333463,
            -0.08310438426255905,
            0.42465969821825966,
            0.15807175434953122,
            -0.006554474395185143,
            -0.1611416909049101,
            -0.2127499641673634,
            0.20077770437683773,
            0.05024514744398949,
            0.017205251094557852,
            -0.27683887928389045,
            -0.10212076381011166,
            0.38576308894248074,
            0.2536497143450432,
            0.23981934354049375,
            -0.2326083669201212,
            0.13293329981013713,
            0.32105712247450285,
            -0.025134309998804165,
            -0.09708453220020742,
            -0.17158427792072217
          ]
        },
        {
          "sx": 5,
          "sy": 5,
          "depth": 1,
          "w": [
            0.10128121941193408,
            -0.008561001698340474,
            0.23402134470905622,
            -0.07563787104775588,
            0.16357384379144488,
            0.13758135844213776,
            0.19667390702360735,
            -0.07641141689136971,
            0.1804029732939216,
            0.004422748670328042,
            0.38474187557298095,
            -0.16291647282767746,
            -0.05557781124045253,
            -0.0851802177010184,
            0.02163205402035004,
            -0.07300547732028148,
            0.5751119779502079,
            -0.11241741126868747,
            0.042924982968309364,
            0.1073504661401203,
            0.11860951862610329,
            0.22970477759283642,
            -0.045476658425322294,
            0.1249270027424922,
            -0.16697719224350213
          ]
        },
        {
          "sx": 5,
          "sy": 5,
          "depth": 1,
          "w": [
            0.06556651314648233,
            -0.3839762725350397,
            0.05971821497311334,
            0.18098889564057266,
            0.17327729761319338,
            -0.007359063678747857,
            0.3539430567967396,
            0.3266625330377586,
            0.18929714431340458,
            0.2991716247611007,
            -0.016185223361836743,
            -0.032459499428403094,
            -0.06278321277688825,
            0.0307232864754361,
            0.4180340902031718,
            -0.3765951942143702,
            -0.01543948923993458,
            0.3018544097236607,
            -0.04200043103690688,
            0.06185334315538751,
            -0.191953082476695,
            0.3254616750098497,
            -0.2993281056756837,
            -0.2040435197330271,
            0.003484382688150264
          ]
        },
        {
          "sx": 5,
          "sy": 5,
          "depth": 1,
          "w": [
            0.00002225671774711001,
            0.5053259846422593,
            -0.12542629232948144,
            0.11988154930881,
            0.41997237024958567,
            -0.07701637089394346,
            0.17090952902327688,
            0.2973980509579111,
            0.252693649156033,
            0.1352210787788,
            0.3009095665565286,
            0.2509311242151325,
            -0.25061900361959766,
            0.1919564817595009,
            0.061231567445442975,
            0.04031033417732436,
            0.3070758641280197,
            -0.19257005893957563,
            -0.03584037322962956,
            0.08024531728280379,
            0.16998486008183486,
            -0.08440427522699682,
            -0.014671384111624329,
            -0.08217021680162488,
            -0.0412272600329114
          ]
        },
        {
          "sx": 5,
          "sy": 5,
          "depth": 1,
          "w": [
            0.5118578807260085,
            -0.09048406049897059,
            0.1907774335024801,
            -0.033990611162276106,
            0.27120010743767964,
            0.11240026008376627,
            0.2668015936388188,
            0.11270143989161747,
            -0.21492033507382835,
            -0.3485115910312856,
            -0.07666203131544727,
            -0.05572423934058308,
            0.29643963104774296,
            -0.20664633043277184,
            0.27511633788812534,
            -0.34677143046521053,
            0.19038394567968053,
            -0.06933488488910408,
            -0.0177280228926467,
            -0.1410040261245309,
            0.10268899255104814,
            0.34011831018109356,
            0.04312296089922759,
            -0.03824715057113804,
            0.41978221063797516
          ]
        },
        {
          "sx": 5,
          "sy": 5,
          "depth": 1,
          "w": [
            0.19394360971854036,
            -0.0558776443270839,
            -0.1412467907251544,
            -0.014650622356775205,
            0.10026715585529762,
            0.16496505871747427,
            -0.02032937282575679,
            -0.22846317082294695,
            -0.023520820961605113,
            -0.1768408169862072,
            0.14264719265103865,
            0.2568161101724306,
            -0.3283025093631261,
            -0.08708605062856825,
            -0.1313492917041029,
            0.3255912474542305,
            0.386107686581563,
            -0.08637702966224484,
            -0.06056617763835233,
            -0.04883548506623779,
            -0.034750105240011306,
            0.03638730535802276,
            0.30759955864030736,
            -0.03499820596038946,
            0.0711718764147629
          ]
        },
        {
          "sx": 5,
          "sy": 5,
          "depth": 1,
          "w": [
            -0.0449630637816653,
            -0.04537700017262581,
            -0.2966800432129833,
            0.2076682431427511,
            -0.08690185567708483,
            -0.10110723418549639,
            0.15242959764675532,
            0.009894268978765547,
            -0.3820075902206064,
            0.04244096511299551,
            0.032159942740114134,
            0.018071609693748214,
            0.125824240932922,
            -0.07384420819602504,
            -0.10379585314921469,
            -0.22976432431415766,
            -0.09310161318649379,
            -0.4833911034397839,
            0.12136539729017772,
            -0.016648589838798494,
            -0.12016863347602419,
            0.0502501856936288,
            -0.06648341898269639,
            0.14793280405750214,
            0.3135451899047478
          ]
        },
        {
          "sx": 5,
          "sy": 5,
          "depth": 1,
          "w": [
            -0.002477416786950149,
            0.10596144169817524,
            -0.019476955424784184,
            -0.09277410520925086,
            -0.008863266625747879,
            -0.14077784138143642,
            0.11026121570298063,
            0.03575761351454049,
            -0.09403775136052928,
            -0.14698951929826257,
            0.22059962713664727,
            0.2607366433318988,
            0.1682319477652122,
            0.17907866770102165,
            -0.24024854826135733,
            0.23668224791806367,
            0.05362362571958647,
            0.18897609556949865,
            -0.08227333293767025,
            0.1421074085505839,
            0.022099111418377,
            -0.06956798879902425,
            0.16286462732715265,
            0.275745377598325,
            0.07666306382718231
          ]
        }
      ],
      "biases": {
        "sx": 1,
        "sy": 1,
        "depth": 8,
        "w": [
          0.04222342348355717,
          0.055672437339383304,
          0.009753282088866156,
          -0.001553988914006935,
          0.021474817253340352,
          0.0751072005776634,
          0.18334386545344575,
          0.06513948443069091
        ]
      }
    },
    {
      "out_depth": 8,
      "out_sx": 64,
      "out_sy": 64,
      "layer_type": "relu"
    },
    {
      "sx": 2,
      "sy": 2,
      "stride": 2,
      "in_depth": 8,
      "out_depth": 8,
      "out_sx": 32,
      "out_sy": 32,
      "layer_type": "pool",
      "pad": 0
    },
    {
      "sx": 5,
      "sy": 5,
      "stride": 1,
      "in_depth": 8,
      "out_depth": 16,
      "out_sx": 32,
      "out_sy": 32,
      "layer_type": "conv",
      "l1_decay_mul": 0,
      "l2_decay_mul": 1,
      "pad": 2,
      "filters": [
        {
          "sx": 5,
          "sy": 5,
          "depth": 8,
          "w": [
            -0.006374701154745788,
            -0.009601758877233892,
            -0.014439310322987384,
            -0.19670039037004705,
            -0.07624975926221618,
            0.07723386394488672,
            0.05609820234596139,
            0.06156662249141573,
            -0.03225129870595753,
            -0.13098061692881385,
            -0.08576865073059924,
            -0.10091938630546195,
            -0.04798520570516517,
            -0.06977017530779332,
            -0.0637759007409196,
            -0.12039170332973458,
            0.008778126353909397,
            -0.16202194393326788,
            0.056987755242203494,
            -0.13232669331285685,
            -0.03763987256202589,
            -0.032462465492784004,
            0.042216084705691624,
            -0.016111798407183676,
            -0.1295955140172011,
            -0.12102323983689095,
            -0.0878267244455258,
            -0.04755074469277405,
            -0.13229297906097545,
            -0.058181746372790534,
            0.10888557665249002,
            -0.08129107411167083,
            -0.06211407402989278,
            -0.1381564109881732,
            -0.17319003859545848,
            0.000024910271891410045,
            0.03517017210981755,
            -0.035143264240609186,
            -0.051312793485975956,
            -0.15395251608467656,
            -0.027745429977172685,
            0.0720881922448975,
            0.04531973705837527,
            0.05688503989931464,
            -0.02430044790731914,
            -0.005434745698787043,
            0.23432328109203648,
            -0.016001723295362997,
            -0.1971956255850339,
            -0.08154041910549074,
            0.03369135949166721,
            -0.0005062913286629873,
            -0.1485227789105882,
            -0.010690588191622715,
            0.025481011674519678,
            0.004939684087370397,
            -0.04523695328595593,
            0.004958260879739405,
            -0.03759355846889084,
            -0.030427967509887757,
            -0.007200475975994467,
            0.03182022349894483,
            0.013077393488838029,
            -0.043703496705197714,
            0.019901058577189403,
            0.02557926697840653,
            -0.13908952843203667,
            -0.1250705011737164,
            -0.03345560832453436,
            -0.16721086282442144,
            -0.013946607353006575,
            0.08784572050046298,
            -0.012860528985313409,
            0.19259058409869526,
            0.07461122605428067,
            0.06543227063169971,
            -0.0859005261202938,
            -0.21260466508024473,
            -0.006427337975669438,
            0.05837015538496516,
            -0.16149462464002134,
            -0.023007401808751698,
            0.005578037152909136,
            0.07261955758452188,
            0.004015308970088753,
            -0.07103589205775036,
            0.1663994799426419,
            -0.054658639645217756,
            0.008206262022992242,
            0.04002015762119929,
            -0.09608747483702136,
            -0.018710285304691956,
            -0.06571192056644445,
            0.0031790801522639752,
            0.11529422541848837,
            0.11092137132595792,
            -0.11824465461408541,
            0.010889518053714391,
            -0.038704542471013445,
            0.08287891353873965,
            0.03836799695559713,
            -0.025020585967273187,
            0.06071066859217458,
            0.05476171500250376,
            -0.02406838397073926,
            0.10247627653565226,
            -0.0009146915482212843,
            -0.0691830871272796,
            -0.04933836315966051,
            0.06749431841843903,
            -0.07009836412863824,
            0.11148324371708503,
            0.027697186788230497,
            -0.038348937369951624,
            0.12477046621452346,
            -0.0232038763989667,
            0.04831938612092601,
            0.027845655384570622,
            0.12347449791322937,
            -0.007867759308991732,
            -0.07562293009321455,
            -0.1686585450632956,
            -0.11247146820650342,
            -0.009695366104538866,
            -0.058744779458772586,
            -0.09386524980132657,
            -0.011976265174343,
            -0.03550401474260566,
            0.055313856774795514,
            0.057118041182952925,
            0.16533978548697503,
            0.04491974221655514,
            0.06830601940332383,
            0.060942907469391176,
            -0.005383972263043321,
            0.018970465121897873,
            0.13833247797511233,
            0.10931723532109877,
            -0.0035921332171991965,
            0.035019626803796916,
            -0.0016736734083125874,
            0.02990523239344561,
            -0.024463395304083202,
            -0.018138529599150865,
            0.15412555076002263,
            0.12769821876344806,
            0.14904319371265606,
            -0.06756360013355059,
            -0.04914307789087067,
            0.10703838485536987,
            0.030590332399396167,
            0.04927591006134802,
            -0.010227806128454881,
            0.05277028933316239,
            0.0003598779613968886,
            -0.06413716180909032,
            0.004710867014583357,
            -0.029422595914878228,
            0.0003906604137492947,
            -0.1487361983739604,
            -0.1857298871998192,
            0.011017870254228209,
            0.10277602616789766,
            -0.07527157367636754,
            -0.022468693536540334,
            0.03538398456322269,
            0.07320829030195404,
            0.011372261531848926,
            0.0713591063039922,
            0.06983354074625224,
            0.0675065246049946,
            0.026335393633337575,
            -0.011075887767223628,
            0.05777275087996837,
            0.003983223176364576,
            -0.0484747860777734,
            -0.06656426669579778,
            0.05071885797697835,
            -0.05937794593959232,
            0.12621092879018714,
            -0.017111897816111252,
            -0.09895551123245247,
            -0.013200530303517762,
            -0.023348142988507393,
            -0.04973127806633809,
            0.08802107907853764,
            -0.07122348301861416,
            0.14795362460275727,
            0.059588880543258574,
            0.012886313224499584,
            0.138321326451706,
            -0.03989045200132384,
            -0.06535126409516859,
            0.003873051351891771,
            0.0503951319241505,
            0.05936959365710377,
            -0.02326878923763569,
            0.0667407228095919,
            0.04517319027978757,
            -0.07138080786699587
          ]
        },
        {
          "sx": 5,
          "sy": 5,
          "depth": 8,
          "w": [
            0.05501219348609886,
            -0.0044692022918177985,
            -0.01814879062821052,
            -0.02255498653399143,
            0.10519300314344597,
            0.09350314379520704,
            0.005089387238844457,
            0.07659485272671178,
            -0.012437745057851403,
            -0.13119889803422638,
            0.02091417210803878,
            -0.09951804792058246,
            0.14874978556441823,
            -0.12211697862683787,
            0.04728156045537794,
            -0.03624323433455467,
            0.06352508826604768,
            -0.07984123271706603,
            0.0070652131301488985,
            -0.16667104969081317,
            -0.020357019686852645,
            0.040612290855177945,
            0.024539573685191846,
            0.03517155185071775,
            0.15493363160081938,
            0.0891305674234374,
            0.05512588353414993,
            0.10517231659713958,
            0.0025662785896539294,
            0.025387314050759377,
            -0.07101635049815365,
            -0.07285371397586507,
            -0.0419824367657421,
            -0.07669662182528908,
            0.0954494143272945,
            0.19454638468033958,
            -0.02632418200803067,
            -0.04386672683442617,
            0.012326816311161755,
            -0.044619709318623135,
            -0.2021335299133298,
            -0.04431886813936594,
            0.026725686609053587,
            -0.027119399755230984,
            0.04661184785548814,
            -0.05325958145250592,
            -0.009655544880248954,
            0.054608931985451484,
            -0.06915104676139486,
            -0.014353929394718221,
            -0.0030981282620169454,
            -0.050564136348389195,
            -0.02561259725226299,
            -0.004122417154389663,
            0.05236297763583323,
            -0.039234183736461675,
            -0.029624180487049807,
            -0.13180449889873144,
            -0.019790437400905858,
            -0.15748344570338627,
            -0.02170194192053099,
            0.07812743961940759,
            -0.049984399788335666,
            -0.13310990480518475,
            -0.04538191573809732,
            0.0534680409818635,
            -0.06379205463012977,
            0.05688687561772681,
            0.07145512955599179,
            -0.07887386701667763,
            -0.022637450589872873,
            0.08165268233941166,
            0.1030180853685535,
            -0.005308190650147903,
            -0.0703195287922813,
            0.017446340100645732,
            -0.009608837707718892,
            0.029821516798313526,
            0.012575934175972324,
            0.09704221170611681,
            0.029988708882490084,
            0.06870299269284252,
            -0.007627131004789355,
            0.14088730240544917,
            -0.04170925014132241,
            0.041475312818745516,
            0.11786828090543407,
            -0.056104297067069875,
            0.07877801287939802,
            -0.14569744172942764,
            0.008866048149628686,
            0.004457051994949514,
            0.10472760489435415,
            -0.16654224608311108,
            0.1385547198187577,
            -0.13077855909081162,
            0.14290053103281194,
            -0.14744410816843334,
            0.007964751198153713,
            -0.10078190028542632,
            -0.06258523507552431,
            0.03175872025633146,
            0.043326677950280154,
            0.06585512232976495,
            0.03833061369643779,
            -0.045859711442157065,
            0.03543373574411982,
            -0.024019941910869792,
            -0.0431886941209008,
            0.08517023098661552,
            -0.025812668255006888,
            0.11909654441415078,
            -0.008326162969596419,
            -0.0089179175029406,
            -0.05653810955853307,
            -0.06754802179759552,
            -0.054633300442553955,
            -0.1294252236286859,
            0.1520555580031495,
            0.013876667104753503,
            -0.0057566764397214065,
            -0.07324341624495566,
            0.03740635226006354,
            0.08546266663125612,
            0.010770248598626894,
            -0.0007033794082752718,
            0.07102028295739256,
            0.052713810990855106,
            -0.016221495880813352,
            0.0635018881474541,
            -0.06805752207068765,
            0.050719619136312476,
            -0.05498692970718553,
            0.09263128994478842,
            0.043578151503854225,
            -0.04058175688563816,
            -0.04038936236760482,
            -0.07425908259777482,
            0.1742471840373525,
            -0.053502986475504,
            -0.08621197757804741,
            -0.085976725293097,
            -0.08228625640599224,
            -0.13576928869884472,
            0.021513288488181254,
            -0.07940422706300214,
            -0.019574902762051812,
            -0.023028884426240525,
            -0.08111344569131133,
            0.048178427315539056,
            0.0295062052315915,
            -0.059219455458515924,
            -0.07999519420711926,
            0.04186409572666435,
            -0.14173289739888528,
            -0.08685433551838691,
            -0.04935242462693513,
            0.12038638593647986,
            0.022976225790579573,
            -0.050826629415607436,
            0.027592623251977505,
            0.02442179226365221,
            0.06513225080959137,
            0.06200240849833275,
            0.0036490411929388433,
            0.0012456328156140765,
            0.1065765037784296,
            0.08473388633231405,
            -0.029125777118096746,
            0.12140991582920908,
            -0.06495959228925607,
            -0.105557386970666,
            -0.05857790127025333,
            0.03029983961623651,
            0.05749708915983081,
            0.02817140547496925,
            0.02431002855568217,
            0.009963929117933949,
            0.10186265934336386,
            -0.07429573213516866,
            -0.0617117811436489,
            0.02529429432851696,
            -0.01684304439898752,
            -0.0042386671167229314,
            -0.09965172964535227,
            -0.0906108390925386,
            0.006472609466630049,
            0.02358211248816957,
            -0.057915062278789356,
            -0.08436184442778953,
            0.006665030355869598,
            0.005642553999856274,
            0.020781851894326485,
            0.03060668130901883,
            0.03923876496171305,
            -0.11309401147495488,
            0.07090725269508047,
            -0.07818268284143068,
            0.018608121674116806,
            -0.019006431436765347
          ]
        },
        {
          "sx": 5,
          "sy": 5,
          "depth": 8,
          "w": [
            -0.05833501986806416,
            -0.18648490699990963,
            -0.07852138675809839,
            0.022049064499185443,
            -0.0508809929855244,
            -0.08006941156554775,
            0.07292418289849799,
            -0.05901450142438907,
            -0.01680832188453697,
            0.019796724993341168,
            -0.08981008505330002,
            0.07229657660171532,
            -0.023496280954677914,
            -0.16772071858728177,
            0.06981783574640583,
            0.1009185423347419,
            -0.04507904100498353,
            0.06855350784619545,
            0.04443240152605578,
            0.12968264204621083,
            0.04629833523345564,
            -0.01147702917988487,
            -0.13481669064220508,
            0.1002593318713085,
            0.024606479703881426,
            -0.04789489172894186,
            0.03355002296970265,
            -0.18728809008365105,
            -0.11909969185401519,
            -0.18342945685813353,
            -0.05187173228699266,
            -0.047361056751055466,
            -0.08924892752764182,
            -0.009077118823419906,
            -0.1348240169936423,
            -0.06888252677680184,
            -0.05698780127531814,
            -0.07638211625974581,
            -0.03505614074901529,
            -0.019213495518984557,
            0.03857517102430438,
            -0.01239496028186641,
            0.03860883008326107,
            -0.039914956715256474,
            0.015068568191749135,
            0.07437784234782169,
            0.06713568120758905,
            -0.10531456894147123,
            -0.014290434939453152,
            0.031003253701836257,
            0.03328631503895205,
            0.06941558714155477,
            0.05499500743346761,
            -0.02434030828442058,
            0.14004589880317006,
            0.02659730195270945,
            0.1380012904384762,
            0.024681496478828325,
            0.02166754582421513,
            -0.05180412500565615,
            0.024888377094600185,
            -0.16111036020487005,
            -0.033202454997880736,
            0.009085928384287414,
            0.07717264482650492,
            0.010989578460176695,
            0.014731145837339706,
            0.08889640470519286,
            -0.002778059211581978,
            -0.10957017363623332,
            -0.0531336954004784,
            0.04769937247844371,
            0.059096829583899405,
            -0.10237501997137247,
            0.021859783199258492,
            -0.13764129519833732,
            0.0719356781735021,
            -0.01765024780303876,
            -0.06722389745067266,
            0.08367592666990252,
            0.02193002937022559,
            -0.17168653721566715,
            0.06814044482597087,
            0.06482695921041634,
            0.06519379013433214,
            -0.10649296579098008,
            -0.052497173955985035,
            -0.19652212783759251,
            -0.0014968716911094697,
            -0.031455299789878634,
            0.017872624511683154,
            -0.07405267260184327,
            -0.13510188826319536,
            -0.0550201371283081,
            0.03599373565569448,
            0.006828441340595278,
            0.07214266819560919,
            0.0992306533134383,
            -0.11827812093168966,
            0.04560524550347286,
            0.07750796018708134,
            -0.0012613300383292469,
            -0.08351319227386826,
            0.03472233292541284,
            0.07972551572544821,
            0.027014749818771135,
            -0.07074728579658209,
            -0.06453374152864064,
            0.010730230766882645,
            -0.018277458763177563,
            0.056771519636742075,
            -0.008673066390598309,
            -0.07785535326990414,
            -0.08669130810477661,
            0.027181552817590222,
            -0.020723956820781982,
            -0.15416385541239558,
            -0.029456297009949624,
            0.057162790871262185,
            -0.13237198921904392,
            0.09549927859428096,
            -0.09944361404405863,
            0.04840694780523099,
            -0.03555931411863971,
            0.025279482831589317,
            -0.01826294066932073,
            0.02177576971769535,
            -0.132972666895175,
            0.03278286652299006,
            0.014910157727033416,
            -0.06942118433362658,
            -0.06756369039519251,
            -0.08752977831057202,
            -0.020798944028623204,
            -0.08402054542818124,
            0.01985705560678078,
            -0.10915978069932074,
            0.038893007411071184,
            -0.11984764456972245,
            0.09662666582924591,
            0.02277689493586928,
            -0.01891585495869096,
            0.01776970069250282,
            0.09317384549555867,
            0.118931218451285,
            0.1721005610562511,
            -0.04605545278379147,
            -0.07882432682640644,
            0.08821153661993533,
            -0.15806268716497976,
            -0.10383685010804797,
            0.0072348278617078345,
            -0.013800364674786814,
            -0.09077987653675448,
            -0.06708329386057657,
            0.10023647119129551,
            0.09183328067050386,
            -0.012794283180779705,
            -0.0257947629614174,
            -0.03458177260922044,
            0.03686084949613443,
            0.1610555940991248,
            0.036057594843838144,
            0.05742493031300144,
            -0.015415574558872143,
            0.12918582638260645,
            -0.018626732861300527,
            0.11009354658870114,
            -0.09255412353200489,
            0.1129711144459359,
            -0.13308927319272143,
            -0.09031276999962827,
            0.04736664099300689,
            -0.0117520711830109,
            0.037429480699157594,
            -0.08156876842627572,
            0.049148190956104267,
            -0.12069608399810756,
            0.04521513735378402,
            -0.05443062669887591,
            0.044361710188076046,
            0.02120663387238873,
            0.05293194731506611,
            0.0004155999380316698,
            -0.016824277047999173,
            0.08820806509186042,
            -0.08936667608568334,
            -0.14716276327511504,
            0.06656707783950057,
            -0.005840658367989179,
            0.021869045832843933,
            0.09892328383411413,
            -0.20030278570900054,
            0.008739454956129381,
            -0.060744659828597704,
            0.0405661139325428,
            0.08710730185953079,
            0.05572887243911404,
            -0.0024661668403673895,
            -0.11005685101033941
          ]
        },
        {
          "sx": 5,
          "sy": 5,
          "depth": 8,
          "w": [
            -0.089924972322137,
            0.05204985467783511,
            0.04214397775741739,
            0.0986586512576381,
            0.051587269431266174,
            0.06734656883172563,
            0.10892656411197763,
            -0.11205305793997836,
            -0.0297601241193401,
            0.014672736184465615,
            0.06571609323303255,
            0.010024162541690149,
            -0.15050507214998526,
            0.004459398768818885,
            -0.018335621505785847,
            -0.06309039071017612,
            0.2372328785755408,
            -0.02967723967907822,
            0.1306243294725354,
            -0.061371358509692074,
            -0.0444310687091644,
            -0.02570698014902171,
            -0.02266062445668355,
            0.04932592724793772,
            0.05861134077869494,
            -0.04058237061561523,
            -0.015843997930301796,
            0.020016976803043388,
            -0.058714660248327166,
            0.0577563252874177,
            -0.031847548935148996,
            0.018438093158817087,
            -0.03844357580361215,
            0.03736682065030316,
            0.041952453419550326,
            0.12311193711327752,
            0.07603560461391266,
            -0.052673136003282536,
            -0.07747205597064712,
            -0.03602830757630293,
            -0.019942077335140872,
            -0.06602226357222793,
            -0.11856552423633573,
            -0.020877183032983474,
            0.0052235913780069015,
            -0.0022729495304963905,
            -0.01652249938836983,
            -0.04797741744017177,
            -0.15750399244152682,
            -0.12990376020283853,
            0.09624906365597646,
            0.06413085179527235,
            -0.15506683535437946,
            0.012909725243519566,
            -0.12204734819573604,
            -0.09499145387006386,
            -0.07781960892469925,
            0.005266773843238164,
            -0.03562473940529208,
            0.09388763903952846,
            0.005482838074005515,
            0.06802818572042982,
            0.00007186840124464422,
            0.0310674140354701,
            0.1360685040384094,
            0.12158184419737604,
            0.15257108563555596,
            0.009825992269869967,
            0.1371486483459883,
            0.10783734281780084,
            0.025419014760418034,
            0.022108180650091906,
            -0.02096188926337787,
            0.1012221981956635,
            0.03782960274039571,
            -0.010132378830058367,
            0.017335458260126932,
            0.0020128386749647593,
            -0.1120110741032148,
            -0.0026509455535532506,
            -0.07496028663616276,
            0.0552293585209758,
            -0.02172058594112446,
            -0.16760653889008503,
            0.05075322077230077,
            -0.14748792354622453,
            0.0766501684608431,
            0.02836307437481526,
            -0.08929640800666251,
            0.20938937401334004,
            0.05921836121939791,
            0.06763654895697735,
            -0.14643795187187333,
            0.06975212721652195,
            -0.03460158012936601,
            -0.00901816222980231,
            0.0193860491671446,
            0.03529399652068238,
            0.16520725695442234,
            -0.016622935723901503,
            -0.00786535650855374,
            -0.07491081472898316,
            0.017150271731807113,
            -0.042463940884316966,
            0.014235944293120245,
            0.08132991029549268,
            0.01910250017658978,
            0.008427640335894939,
            0.04187126371764852,
            -0.04167428844419417,
            -0.06480946748133762,
            -0.05308791624048754,
            -0.0529095496213721,
            -0.05998184629675967,
            -0.09349959204439108,
            -0.05015426393888021,
            -0.04647268856673294,
            -0.053983250606903656,
            0.061445100283929646,
            -0.04076092606921322,
            0.05779600993254319,
            -0.03965043836044722,
            -0.11803186068918003,
            -0.03051014184271245,
            -0.1642789710091448,
            -0.06506702129965565,
            -0.09436935103810967,
            0.06567681638059301,
            0.11194732078446983,
            -0.009080674063783236,
            -0.1164284915449831,
            -0.07501163489230389,
            -0.13236188574131602,
            -0.05806126756318568,
            -0.05580927943872271,
            -0.02858916891564158,
            0.06857555335925584,
            0.06394256687244686,
            -0.08344596987591084,
            0.03881178679669431,
            -0.05303293372725985,
            -0.07498062834818829,
            -0.01568864835790265,
            0.09245932706086975,
            0.14046849230096067,
            -0.007416999629166435,
            0.09459235518398626,
            0.12475753373233969,
            0.048289663210143836,
            0.037460910104856755,
            0.08399771967475987,
            -0.026957350110985753,
            -0.030273472198438185,
            -0.10316404032646058,
            0.03430660538860504,
            -0.10597055711860269,
            0.16293644592364442,
            0.05357834067427652,
            0.07855314738085507,
            -0.03635737082090135,
            -0.025725282150948273,
            -0.08954982358317153,
            -0.08693287656321033,
            -0.0276864211639068,
            -0.07897144118522023,
            0.0157621170289378,
            -0.08925918024001114,
            -0.002743336541707109,
            0.08925403516149687,
            -0.12275361985376929,
            0.0059853067280644994,
            -0.02308594374005787,
            0.039196289499478176,
            -0.14409134448290217,
            -0.0334743862990699,
            0.053280548381985135,
            0.10462950378317674,
            -0.051795362776894525,
            -0.022691707568873003,
            0.0005981798320699521,
            -0.023512251701223567,
            -0.06577849987651163,
            -0.038987795273564205,
            0.03789955896424443,
            0.07706017988257334,
            0.02911700053741342,
            -0.004990164237523593,
            -0.03037594466344521,
            -0.04016166807259592,
            0.0323112505102116,
            -0.10962677653563115,
            -0.028576421633878964,
            0.015148613502152216,
            -0.00906158263227229,
            -0.0841101655782244,
            -0.020939477658204426,
            0.01812550229849383,
            0.0014755878939457809,
            0.06495768932024537,
            0.03536122750947006
          ]
        },
        {
          "sx": 5,
          "sy": 5,
          "depth": 8,
          "w": [
            0.016202022473114253,
            -0.12016491324371786,
            -0.08494966699793825,
            0.024282181380368955,
            0.05788860646419664,
            -0.062496377374449213,
            0.14628697834767104,
            0.02641655188764081,
            0.10721210047327673,
            -0.00029531210700963097,
            0.08525093239069827,
            0.02525297673018967,
            0.12229027926895536,
            -0.02010141500886953,
            0.03029980065659153,
            0.1618922133740978,
            -0.04615864449721173,
            0.09510812602412223,
            0.20831026989353438,
            0.13656643771203852,
            0.04954406475441896,
            -0.057079205448811926,
            -0.12298987227247121,
            0.0020346516797667543,
            0.10899078458252814,
            0.06876205671401325,
            -0.055451579580713006,
            0.033758254784179424,
            -0.026529661755051486,
            0.13656579049562267,
            0.028599848262543286,
            0.03416530151222108,
            0.0036789692056269324,
            0.1256072292560527,
            0.1166940275585267,
            0.0055970497498739145,
            0.04584930763835356,
            -0.01227772408972848,
            0.10662567824705277,
            0.14617466975627122,
            0.021093579057960377,
            0.06150469600032572,
            -0.05543861400999964,
            -0.030651869543039622,
            -0.06250192502087414,
            0.0728648050849616,
            0.058183906381702226,
            0.11276541546441149,
            -0.04973684542820726,
            0.014894403742368301,
            -0.046766146085040795,
            -0.03201938669037111,
            -0.029534834350668,
            -0.05148764958464585,
            -0.04311815941241274,
            0.00836373750183055,
            -0.04370634202869652,
            -0.016955498035780336,
            0.08042860183552195,
            0.04708134911069047,
            -0.013754873505572689,
            -0.003650312831275416,
            -0.03974400778695084,
            -0.07258137374356843,
            -0.06704466309278737,
            0.16548446097384376,
            0.13180854961721444,
            0.14704541601140456,
            0.09155897293575381,
            0.021300848515568405,
            -0.040421474224496795,
            -0.03055611266464864,
            0.021390881211785586,
            -0.07241666144454005,
            -0.04189653355097413,
            0.06589159610977861,
            -0.0892558745244688,
            0.010071222774767912,
            -0.027981337874415712,
            -0.022044457367137265,
            -0.11207558758001722,
            -0.13669549966556394,
            -0.006375625243395036,
            -0.08343430836168457,
            -0.11427013268807514,
            0.016758474409351822,
            0.11306776416960197,
            -0.041838544959952526,
            -0.0559045175953897,
            -0.010728425984417238,
            -0.027387251508542196,
            -0.10573679861330876,
            -0.02104831310887937,
            -0.06536140884185608,
            0.0545544935973397,
            0.055342036757250704,
            -0.015169212635708511,
            -0.056687807337011786,
            -0.04038334490124853,
            -0.032411923124540803,
            -0.051639634850965406,
            -0.1250065977197518,
            -0.03502338495081669,
            -0.0455528312390163,
            -0.07570153103869093,
            -0.06822044317323227,
            0.036346368567367185,
            -0.20197820687033666,
            0.1086359610800371,
            0.031117550804395006,
            0.07508471296054102,
            -0.020819765157546005,
            -0.08478292835907857,
            -0.014751291042488764,
            0.09539151577922098,
            0.14809994230763282,
            -0.0027037127101673555,
            -0.02066803177357914,
            -0.09526148839598002,
            0.01615826402207623,
            0.03876097175396585,
            0.013184628677032906,
            0.017074917129595524,
            0.20251605853166826,
            -0.2641613370429302,
            -0.017792009133741585,
            -0.029826281636882605,
            -0.12647162756363986,
            -0.07372393314121113,
            -0.029242834095489736,
            0.0151995759651538,
            -0.02266949510948235,
            -0.10453022874011056,
            -0.010000896162533256,
            -0.02252287859328829,
            -0.08099175211278956,
            -0.013467215186410897,
            0.04348325861452583,
            -0.00839139983051724,
            0.07376290663442708,
            -0.04636143732709438,
            -0.03254372259331312,
            -0.07050858014976166,
            -0.14439508862533235,
            -0.05401100126675812,
            -0.0655759332217517,
            0.006968395642986008,
            0.023429241169026626,
            -0.04730534195699282,
            -0.029043915511939956,
            0.14429479866151684,
            -0.0752624598611813,
            0.0036061153639067437,
            0.023272428946469154,
            0.05282960987412943,
            -0.16181462778546776,
            0.025978521003717652,
            0.03657015342736471,
            0.04819598842647445,
            -0.05572755521596766,
            -0.21811178648021404,
            -0.15024362909389868,
            0.04358334841450516,
            -0.019240815098607478,
            -0.07538010057241111,
            0.002734336881156603,
            0.09279018598068094,
            0.005860277091321294,
            -0.07934814800523902,
            0.05564620044921368,
            -0.04663321864862057,
            -0.14784001261550886,
            -0.018474451908506,
            -0.02859399865897413,
            -0.04483737387191621,
            0.0010339876877420758,
            -0.0753361051915521,
            -0.10679896355127823,
            -0.17339796070766636,
            0.038900781032864054,
            -0.16665969259949473,
            -0.03233766366874629,
            -0.0838538909753338,
            -0.054710898159057914,
            0.016088499322284684,
            0.04678097898958696,
            -0.06595978007095475,
            -0.03711685968959717,
            -0.16343602991515727,
            -0.05420026509744843,
            -0.053749522547798405,
            -0.005072469869682162,
            -0.05811218817388571,
            0.055000568796102614,
            0.03729043356773266,
            -0.09761681909687951,
            0.050762563552146645,
            0.04599268772792296,
            -0.03570038163401739,
            -0.054774841714936864
          ]
        },
        {
          "sx": 5,
          "sy": 5,
          "depth": 8,
          "w": [
            -0.08591122666228916,
            0.0657211503376338,
            0.05119492107262131,
            -0.06619044403039084,
            -0.05561114299607892,
            0.02309781807094217,
            0.07622946354908172,
            -0.026542406623035406,
            -0.10560991300608231,
            -0.07523641609571957,
            0.12528843873539078,
            -0.10470320953397544,
            -0.21824804711671147,
            -0.07806335061893394,
            0.05671901090565384,
            -0.04679971220394798,
            -0.049983356740357865,
            -0.03438839768126564,
            -0.034503986610222484,
            -0.030185448445021253,
            -0.04070866699822215,
            0.01714220411421537,
            0.1332167293939165,
            -0.1017131562071064,
            0.05699930839148863,
            0.01754705369680143,
            -0.09138472555283449,
            -0.02326466108695282,
            0.03836892683607538,
            -0.0016690088527959936,
            0.008661914027831284,
            0.0842241388433858,
            0.05140680976857191,
            0.01309286322273237,
            0.11253810628471447,
            0.015486877025857871,
            -0.08525566448455582,
            -0.16114868457871703,
            0.07001332783907994,
            -0.028041229859368036,
            -0.01134641467682049,
            -0.053958320166399225,
            -0.07460892340692647,
            -0.06982923952827007,
            -0.04488724266683607,
            -0.009449605927218541,
            0.027725504407683954,
            -0.03671508616426899,
            -0.017681740712918382,
            0.007060904417036108,
            0.025380454951235476,
            0.120611724067891,
            0.10100668690153178,
            0.008405806836250052,
            0.09279050196334133,
            -0.07117800988041031,
            0.016967470805096804,
            -0.0923652403909239,
            -0.04404714690562004,
            0.12778452322696632,
            -0.13983671630113131,
            -0.03145508661959732,
            0.13967413786519015,
            -0.031688382616879215,
            0.08426109489398786,
            -0.03683485486622743,
            -0.1618240129030047,
            0.013137532920511768,
            -0.10176279779342433,
            -0.08359005196851113,
            -0.02697175575610531,
            -0.029664700271294447,
            0.05271617146690798,
            0.01671559834973713,
            0.0076204206401318565,
            -0.16329461768087244,
            -0.17948019985082408,
            0.018826116330112188,
            0.058559156306637994,
            0.1710506194934355,
            -0.131833058301471,
            0.023829755427460967,
            -0.06464354385026828,
            -0.12820199373688726,
            -0.0016179890692634945,
            -0.012909663388171962,
            0.3067008191718785,
            -0.001788790466331084,
            0.06250336375807132,
            -0.03680462797153532,
            -0.030511040609760762,
            -0.09411794568431299,
            0.005094070076404164,
            0.009020708087769704,
            0.11843008008873243,
            -0.01573424081173733,
            0.053857293360704835,
            0.02283530648377002,
            -0.0029283882041681495,
            -0.047581678023083745,
            -0.015780149335434316,
            0.015130082729411316,
            0.16152404402499437,
            0.02174126694992893,
            0.04475281501904202,
            0.1616381973392606,
            0.024798473298389134,
            -0.012205996441045038,
            -0.007389025160282856,
            0.038423411018225696,
            -0.02016375179324972,
            0.006786744897393267,
            -0.09016279802568104,
            -0.13523724941882925,
            0.03283662931193583,
            -0.146247274632702,
            -0.10073917312915767,
            -0.004903610929801109,
            0.11275425449633347,
            -0.0003162909491917895,
            -0.12129973565664057,
            0.04250330966034466,
            -0.024439825240951497,
            0.0675346889166507,
            -0.03112864759115802,
            0.02478784009676832,
            -0.09520589198687551,
            0.003293936277562215,
            -0.02497861634751718,
            0.0038410940321070355,
            -0.012176933389863075,
            0.05414272477033783,
            -0.047504276404838855,
            0.07764302141742634,
            0.1213774017211969,
            0.14930576684271796,
            0.08571889367404445,
            0.10038230709711413,
            0.07540929594407556,
            -0.10527598583860881,
            0.003996099710818281,
            0.1733270167603269,
            -0.025867316724474895,
            -0.061090235297795614,
            -0.015811129318013577,
            -0.08888146012230473,
            -0.06896361866795604,
            -0.06038750850497507,
            -0.11734277928127744,
            -0.11193442062196185,
            0.10291490740183859,
            -0.07751671090385578,
            -0.05637426913304018,
            -0.07078685331042522,
            -0.1702554986373015,
            -0.13987920184214037,
            0.0253524879416038,
            -0.0487845891423328,
            0.15259014604057408,
            0.022622347423920004,
            0.1873154298141737,
            0.1401335310810182,
            -0.04928087343059055,
            -0.07827581976480537,
            0.12361856995533496,
            0.15726079185823724,
            0.12905408195647797,
            -0.034063713037582495,
            -0.025364078897627845,
            -0.014027317613020247,
            -0.019155369591051807,
            0.012836387470339066,
            0.031273594690343846,
            0.13888394027971449,
            0.033025950604593575,
            0.07865639618202233,
            0.04649060175527181,
            -0.04469999476905243,
            0.03998097277845536,
            -0.04541001663126218,
            0.027182905650173485,
            0.1466869771251722,
            0.006714015428710024,
            0.06424264635496793,
            -0.15355520391158195,
            0.041953191292213955,
            0.00529433150210092,
            -0.016839261749031293,
            -0.00864952076820222,
            0.08611055916805964,
            0.1733306385007121,
            0.09600483787671922,
            0.15485225805499037,
            0.10912348907477946,
            0.07567500033842783,
            -0.06081487562437771,
            -0.036230000865313104,
            -0.0880698900583091,
            -0.004168444342093576,
            0.010558199744790454
          ]
        },
        {
          "sx": 5,
          "sy": 5,
          "depth": 8,
          "w": [
            0.11793763421640131,
            0.061367975139526416,
            -0.06497818227376428,
            -0.10360268536513519,
            -0.013810202716392985,
            -0.05055163860054408,
            0.05918907904994861,
            0.0020216016555096787,
            0.04119521068596834,
            -0.011392110839970616,
            -0.07386894670066753,
            0.048165332848385645,
            -0.014741042248367912,
            0.15677140404969012,
            -0.09067511635832515,
            0.04259184288290346,
            0.033928906627556044,
            -0.05725172618259702,
            0.013127191657301876,
            0.009294692866140097,
            -0.050236909512416564,
            -0.007492630982397668,
            -0.05214458857589578,
            0.08715171432663138,
            0.06682574504602537,
            0.05444473917099898,
            -0.03564912870913582,
            -0.11567124188179945,
            0.03929351639209079,
            0.14748146177544325,
            0.05725838250229219,
            0.014902017926862103,
            -0.10247999346513624,
            -0.09691247894260224,
            0.09327934771226774,
            -0.12432618189907967,
            0.05431528967922121,
            -0.10937887238347833,
            -0.0849331490166932,
            -0.1772738520937224,
            -0.04880510429185514,
            0.022153966932238894,
            0.08038155318235331,
            0.04298396737485702,
            -0.0004914462627492568,
            0.00413260369207599,
            -0.07745791836766801,
            0.03428347418968854,
            0.1023041282063844,
            0.12643822942552327,
            -0.08999040603690928,
            -0.07979326500034135,
            -0.031018020926811652,
            -0.004565109373221495,
            0.07898112228412198,
            -0.15364220275422605,
            0.19023566769123096,
            0.03453593480211701,
            -0.06825699064591009,
            -0.0033737689750957716,
            -0.0808221830118846,
            -0.004870986580395619,
            -0.06927557459245924,
            -0.11115388359234024,
            -0.022738739344709248,
            0.06039058923342192,
            0.01425242926043192,
            -0.06088093122635871,
            -0.14710534235706685,
            0.06647227266416686,
            -0.10780727040362723,
            -0.018689675185510558,
            -0.15269972511766977,
            0.06713969116878483,
            -0.09357154037150629,
            0.011787676460412674,
            -0.1381052543680472,
            -0.01817176055422418,
            -0.061621873006188835,
            0.083299818809224,
            -0.08442640727242326,
            -0.060408166663650176,
            0.09683559726074768,
            0.08369658379678598,
            -0.13306690674260604,
            0.007365081300681494,
            -0.0453577929575131,
            0.0714061512827575,
            0.09929477705819928,
            0.07805547226516905,
            -0.10761848345566534,
            0.0006953664587984547,
            0.008439403261304048,
            0.03489108385865344,
            0.18908959171393788,
            0.006267931885341961,
            0.10959926523386401,
            -0.01974393727401617,
            0.08266217335465105,
            -0.00968154752994811,
            0.029369179207249886,
            0.03933481124581115,
            -0.022573625281067326,
            0.1304480427584825,
            0.039907390804371896,
            -0.03898512302313588,
            0.08212955732827784,
            -0.02158444013398532,
            -0.12669655691825207,
            -0.061827720552918804,
            0.04089281903685713,
            0.0578193512452665,
            -0.017862986771680817,
            -0.025661780457513262,
            -0.04067962492911097,
            -0.01940807814667134,
            0.009338799560543098,
            -0.11199627654401105,
            0.08815223299427126,
            -0.08575307303502266,
            -0.03301090520606194,
            -0.06655969033384918,
            0.05294764308945739,
            0.09620727606095726,
            0.14575646981025372,
            0.00019063718026828092,
            0.006631014982118067,
            0.05290936652419705,
            0.08858796780577102,
            -0.04157009911443488,
            -0.03238628166817244,
            -0.014928544663682587,
            -0.035421801109168365,
            0.0006411304995716672,
            -0.008995957433567302,
            -0.03360890757874646,
            -0.08295232283205121,
            0.1233713102869433,
            -0.010316470519526118,
            -0.030805551155514855,
            0.0006721568945616223,
            -0.06488680266452886,
            -0.0028681512713340383,
            -0.018041304268472915,
            0.09632645968556541,
            -0.11086096795430561,
            -0.1521352063552526,
            0.11241151406388923,
            -0.02711163587006768,
            0.03293161277652894,
            -0.028147967944973998,
            0.021360763539564284,
            0.10749580086351583,
            -0.11624826358032606,
            -0.0532424759299383,
            -0.053270335566091016,
            -0.009867495436677106,
            -0.07728325106682267,
            -0.04218400718346422,
            0.11216331222235112,
            0.05120056088225257,
            0.02238097431176049,
            -0.09857210869971465,
            0.05513788704629615,
            0.05498393429347811,
            0.0528107998368232,
            0.08998405103047027,
            0.034835641365904,
            -0.1080480137181367,
            -0.01735353280193035,
            -0.1160319908768173,
            -0.10578985236642857,
            -0.10718935444010524,
            -0.04637289919384426,
            -0.027538616996734135,
            -0.010278595740909337,
            0.0656223132089392,
            0.04196557959250955,
            -0.07016134677789089,
            0.021677402544580893,
            0.10350094747461468,
            -0.03419745571172062,
            0.01455983115649402,
            0.10693843160562597,
            -0.1135474483565291,
            -0.2649808612433133,
            -0.06177982179527324,
            -0.03634177519633182,
            -0.05780478525445013,
            -0.04362884971384703,
            -0.011410369799097904,
            0.0004255882182416533,
            -0.15387220229762436,
            -0.04216122343109373,
            -0.16996122715480813,
            -0.007051106523893116,
            -0.08917174865055823,
            -0.05641267024059286,
            -0.010106741831886153,
            -0.02972608468969372
          ]
        },
        {
          "sx": 5,
          "sy": 5,
          "depth": 8,
          "w": [
            -0.07972131934477773,
            0.03843468227826929,
            0.06393464562355528,
            -0.027244786406147737,
            0.10693171711500342,
            -0.04396425774851015,
            0.12131634284304671,
            0.021236754555624193,
            0.024077690753159086,
            0.01121892350170543,
            -0.014995969544335703,
            -0.09692448682253371,
            -0.045886382259883965,
            -0.06759206754783802,
            -0.026166621181234976,
            0.05374843213944943,
            0.07008157018552284,
            -0.03856950849594654,
            -0.17092136709717182,
            -0.0018825730672447582,
            0.061888733974728424,
            -0.04970738267340875,
            0.007437379744384239,
            0.010679896551829592,
            0.0036456024885438603,
            -0.09369735070923084,
            -0.09169803277079971,
            0.042467656449696016,
            -0.012972249794475343,
            -0.023227157470414535,
            0.016435827785478852,
            -0.04226124235438598,
            0.0927885743015756,
            -0.12490700866983023,
            -0.05307374948766991,
            0.012101044902399714,
            -0.09585067664461415,
            -0.05036487827597853,
            0.021939062456478742,
            -0.055638545066996815,
            -0.021823008368537938,
            0.07910665556439743,
            0.029921103837844375,
            -0.04177899756290098,
            0.035718737242126944,
            -0.0319385929721569,
            -0.046602740484708714,
            0.046383435667056896,
            0.01856248744349392,
            -0.0039033891444492856,
            -0.05111391817232863,
            -0.002207444256178715,
            0.02505642699082375,
            0.07439282893904085,
            -0.03576888924216945,
            0.043420121998162094,
            0.012509831356151455,
            0.02950610629090435,
            -0.10123682558941836,
            0.07013064647296305,
            0.0023814079085295098,
            0.02742179970839874,
            -0.0012109375630893276,
            -0.0731137786970812,
            -0.16246930830034595,
            0.057219803602141406,
            -0.099138154137153,
            -0.07041003358697039,
            -0.06674478669947922,
            -0.0881602275233952,
            -0.004192333030129498,
            -0.1222781230808325,
            -0.13818395465527636,
            0.04678959073446494,
            -0.1290815133349217,
            0.07240757090435702,
            -0.13064123858489807,
            0.05678364084160705,
            -0.02676594406651039,
            0.0062252352845241655,
            -0.006932405663383987,
            -0.04273649074044666,
            0.01638218901963654,
            -0.07196069556170774,
            0.06360747907333562,
            0.11902690784112369,
            -0.016761217375763755,
            -0.11949860163765971,
            -0.009013564526442442,
            0.056049277369013224,
            0.061436217555253594,
            0.019348189499303645,
            0.07776621093455173,
            -0.013166930182462516,
            -0.07900713108151754,
            0.019828583566518884,
            -0.06105627148081835,
            0.0746538571949694,
            -0.017786818693493297,
            0.05132234584746745,
            0.0788409259056788,
            0.06658025150908066,
            0.004383175411268663,
            -0.029177574503603976,
            0.005393618962933456,
            0.03545576930788484,
            -0.11338374434914562,
            -0.051744339038673565,
            -0.06218076123140075,
            -0.03255607211529025,
            -0.04666898124774813,
            -0.05084442041273528,
            -0.13393042552061202,
            -0.043204071203789406,
            -0.03130206881350198,
            0.03663619965026837,
            -0.07207381539786359,
            0.029595882788167407,
            0.07178705376888996,
            -0.01157421089583242,
            -0.034460636465500724,
            0.013572897555111978,
            0.061029208787860875,
            -0.07444554682692532,
            0.024043771249420698,
            -0.040740567607426593,
            -0.04212557413683156,
            0.0631800824042883,
            -0.068126862403829,
            0.01613674714692798,
            -0.0005512708691262492,
            -0.01972123922742236,
            0.07294611519738534,
            0.05749917079432426,
            -0.13523161047219076,
            0.018782743082393187,
            0.01006564567097812,
            -0.0005189967248060366,
            -0.11310463725753687,
            0.09362162346352496,
            0.04433519642727201,
            0.05780890016654034,
            -0.11707511392204588,
            -0.0017268128527193238,
            -0.06403358077192656,
            -0.06854066900172497,
            -0.15011049500970325,
            0.07578901123804405,
            -0.011317845603198436,
            -0.07396505632437618,
            0.09358172602048928,
            0.05988083669371573,
            -0.01807306376536256,
            -0.0589574476787025,
            0.018457370336704547,
            0.06222890936122799,
            -0.021841068581872087,
            -0.005295668953347448,
            0.05677352452552634,
            -0.06031484815343695,
            0.03450707842086272,
            -0.052171816097882344,
            -0.1224255071444433,
            -0.0144907264123251,
            0.015625766736416895,
            -0.09744807740717429,
            -0.0939139242233464,
            -0.0012571162561964171,
            -0.015223893854233624,
            0.052545964402516125,
            0.10049783911260904,
            0.08666292766574797,
            0.03110627235660304,
            -0.03757429016728673,
            0.02208934543412802,
            0.05322311804084373,
            -0.03694454411409454,
            0.010366718635861423,
            -0.05778655810903758,
            0.04517656928383645,
            0.12215605583712592,
            -0.06366616623310514,
            -0.029651811429686942,
            -0.030240093024546912,
            0.040016587317497805,
            0.019896436378077424,
            -0.06163907871036507,
            -0.05732656676971152,
            0.08556456244375288,
            -0.07476168211702552,
            -0.01573030713949049,
            0.08623019865056417,
            0.02625913242832498,
            0.026452946509453186,
            -0.0975333256236605,
            -0.11090785687224729,
            -0.09094144701561947,
            0.06272639322891475,
            0.08844830255561338,
            0.06076591978284013
          ]
        },
        {
          "sx": 5,
          "sy": 5,
          "depth": 8,
          "w": [
            -0.06979932799734168,
            0.13904178916665866,
            -0.09353574152360505,
            -0.055532015389631484,
            -0.05803250301179615,
            0.08121152109306413,
            0.07207874694067695,
            0.06504138900695339,
            -0.040919309272461284,
            -0.1190366171266588,
            -0.07066526018443646,
            -0.17453290739436136,
            -0.04623828092409423,
            -0.044156692891776345,
            0.13843644405626324,
            0.005088843606911601,
            0.021888443694743052,
            -0.01685402541285839,
            -0.07648336818764553,
            -0.11697073841162736,
            -0.027879941555276126,
            0.08107658578421924,
            -0.04654244971834984,
            0.10886361653083557,
            0.012226039418441347,
            0.08494172258149477,
            -0.0885860179466758,
            0.006140589694422807,
            -0.20466811876050756,
            -0.04585183924103604,
            -0.0024490065403228204,
            -0.030668977659736807,
            -0.027995053576273195,
            -0.11484293887630573,
            0.05274662031742112,
            -0.11765565944846186,
            -0.12973699982299822,
            0.02189806859736005,
            0.11094706072791943,
            0.05495520691923562,
            0.00854780019082395,
            0.05417130299078441,
            -0.10750171936672044,
            0.09673284218808163,
            -0.07870763985472323,
            0.061325249768071466,
            0.050721317294465135,
            0.023781907346669275,
            -0.017823920311407997,
            0.03427500543251885,
            -0.059416583625691376,
            -0.07142325011644798,
            0.008358217732368141,
            -0.0689967387868857,
            0.01063606414906123,
            0.07744350473040909,
            -0.12079642747583427,
            -0.061596211774090665,
            -0.04620615777663817,
            0.05023417008881264,
            0.0758946861035524,
            -0.05246665217329855,
            0.09112720849787562,
            -0.1352020219627849,
            0.10574188625237853,
            -0.0850329988815284,
            0.045850082344952525,
            -0.06373038460229523,
            -0.015215664648456638,
            0.04654313737912954,
            -0.03550062821000832,
            0.09850902540760921,
            0.03986631075320533,
            0.10153496355954403,
            0.04748117633209111,
            0.0010891348306878341,
            -0.049657887395386395,
            0.10696819520140727,
            0.16664211868086326,
            0.07774081444819517,
            0.019691305164713183,
            -0.08243617134460202,
            0.07631423205072314,
            0.02514860927940167,
            -0.022001980506628143,
            0.0789854025171469,
            0.07586452589749147,
            0.05927494404255022,
            -0.06678839881141692,
            -0.11735488529987248,
            -0.022332233217484506,
            -0.025744125216757695,
            0.07067527197300154,
            -0.057300290847989044,
            0.17025434729753905,
            -0.06136378514113462,
            -0.09696187245477651,
            0.05430415736235105,
            0.1369350938383199,
            0.003238260868892231,
            0.05084929525751873,
            -0.03169160828205543,
            0.15444009922801194,
            0.037671693107017366,
            -0.11116142992405971,
            0.004800934584271512,
            -0.1119780089222709,
            -0.054508599681701846,
            0.030056653078273557,
            -0.10863648276135553,
            0.09370215630963857,
            -0.05078385789443753,
            -0.021152487699726222,
            -0.037253312200417575,
            -0.005445659091687534,
            0.09023435751728368,
            -0.041578663855752374,
            0.09351568186012543,
            0.035420046295759344,
            -0.06550837616894066,
            -0.007751235008457312,
            0.0671122172217887,
            -0.0839753138356031,
            -0.01616296970579673,
            0.10220108819924373,
            0.07108494863882074,
            0.03509930600647806,
            -0.08261579473643418,
            -0.055597110628027135,
            0.017493400226418297,
            -0.012563243274539893,
            -0.10963536051139137,
            0.01608071997157129,
            -0.0646327687098906,
            0.04912130692810128,
            -0.07744237428619433,
            -0.00741156182929876,
            0.056391228772755445,
            -0.052539468346411815,
            -0.03358009348774202,
            0.03528180521838142,
            -0.1632285147654535,
            0.01831977982501335,
            0.0648907032161763,
            -0.021941994843719222,
            0.05736967181255656,
            0.03659273830065755,
            0.028762102351939583,
            -0.11708577419197044,
            -0.007159397572843918,
            0.04623230096552057,
            -0.0826727660507893,
            0.0011417316075043899,
            -0.032535924663590315,
            -0.023851043565559053,
            0.04672791403171997,
            -0.012217348590079577,
            0.08325687124058731,
            0.13899820732588491,
            0.023011106392644184,
            0.02137965308641853,
            -0.08747516854884897,
            0.04205907405472569,
            -0.013545787721069213,
            0.10482132574987553,
            -0.009549956426871387,
            0.024324511204112522,
            -0.02271390330591952,
            -0.05133828198439851,
            -0.037395446844815966,
            -0.030221879641418873,
            -0.12970815744708034,
            0.04276204109747812,
            -0.02597759694830263,
            0.15155562371207218,
            -0.0039956207280178995,
            0.046205950641449035,
            -0.12944893732944096,
            0.0883769862678384,
            -0.08442840151719952,
            0.13758561090654806,
            -0.07442159550373403,
            0.1456955233127893,
            0.07933204124599326,
            0.10136055353690418,
            0.01584406079913362,
            -0.005462484699066641,
            0.025517882440088697,
            -0.008308107002419551,
            -0.0747128516612273,
            0.08290877166123294,
            0.009419809267361669,
            0.21912584076628067,
            -0.017419789807408926,
            -0.1768457843960769,
            0.07086307799570322,
            0.000804566430675418,
            -0.04283782690752124,
            -0.025426808742263607,
            0.18620272576487665
          ]
        },
        {
          "sx": 5,
          "sy": 5,
          "depth": 8,
          "w": [
            -0.025329476521977957,
            0.00820196316539828,
            -0.03900659506806768,
            0.06846630814913088,
            -0.03240152516558138,
            -0.016432692602961638,
            -0.07648450571554855,
            -0.01647812130413742,
            0.003859827933408992,
            0.06695681022170709,
            -0.0012031959940417966,
            0.08234670666399913,
            0.212623281378931,
            -0.012504299037562226,
            -0.09376863149548816,
            0.21906552382229158,
            0.07234357383550524,
            0.03536432543993578,
            -0.09614684378581789,
            0.06344453507796564,
            0.01899470469516333,
            0.00045836829623164274,
            -0.10732822841139755,
            -0.007082782831354274,
            0.10839100812775339,
            -0.013371976542426965,
            -0.10729998148296815,
            0.06269565096491507,
            0.09675793057600379,
            0.02535996854302022,
            -0.03988552906764157,
            -0.07024793463726989,
            -0.047047581248372744,
            0.009626125342416416,
            -0.042032733262683836,
            0.02503824432477028,
            -0.059319956224416756,
            -0.03299780651295817,
            -0.026335329512027304,
            -0.07271809390105731,
            0.0520925344747196,
            0.12300709589591394,
            0.05984814250386908,
            0.014287315660537508,
            0.04779418419606128,
            -0.005664594760043004,
            0.014946945665594619,
            0.0013429362625889832,
            -0.003632015718261637,
            0.03999791397972683,
            0.03362377764846762,
            0.004830463561979753,
            0.027434368847730362,
            -0.07216130545101158,
            0.011367635553608826,
            -0.08866098189387171,
            -0.10364949596287226,
            0.03133191936468661,
            0.06700249621841409,
            -0.1042262998356999,
            0.05325407875250023,
            0.03175240302112961,
            -0.007285187521471122,
            0.028905365483669728,
            -0.08577582226656395,
            0.03993473713484653,
            0.09512669595806533,
            0.03633630922683198,
            -0.07963529899643897,
            0.1341861151367212,
            0.1129952368849385,
            -0.0504509848810421,
            -0.03458035795479969,
            -0.013713825628187236,
            -0.02271676813782547,
            -0.044839226641320444,
            -0.14595124902982967,
            -0.09517897415385411,
            0.07226223335783516,
            -0.0015726547491908386,
            0.15649515017532462,
            0.06331497797323096,
            -0.014395099096819321,
            0.13503112477788184,
            0.014211725671587006,
            0.0018368151187694137,
            -0.14215263228901412,
            -0.09602497010921499,
            -0.055228433619314475,
            0.06553273489314887,
            0.06957650722351844,
            0.033301652203159296,
            0.05564193609129495,
            -0.12287553106814805,
            0.033638504553673586,
            -0.11975528261201523,
            0.07644715175952242,
            0.12289238749407387,
            -0.0032819267171646594,
            0.02289368164737691,
            0.10311073765809464,
            0.03390234994333025,
            0.015857648374417076,
            -0.04703151574897481,
            -0.05912190226519769,
            -0.010378252017083369,
            -0.12771875375681038,
            0.028873636762859173,
            -0.01843540505078211,
            0.0768454058070852,
            -0.05944604669704391,
            0.07657909118731909,
            -0.034059258743945754,
            -0.02791464164007474,
            -0.04064993302690501,
            0.010574808305056638,
            -0.02371872331299816,
            -0.027357962987095915,
            -0.021968686412260647,
            -0.02894596858434356,
            0.07876471673182035,
            0.027775177427085945,
            -0.017326278262801857,
            -0.021283738594933,
            0.056019619574798556,
            0.18411265035894303,
            -0.03897733244463485,
            -0.08315265609080842,
            -0.021971748990291366,
            -0.18669335190543207,
            -0.060157555445558855,
            0.06512639518478397,
            0.02512469236515682,
            0.061377297731579517,
            0.11697728661767183,
            0.005355579768791352,
            0.023063437703934365,
            0.021266599574019933,
            -0.005497834708942876,
            -0.02564989006119224,
            -0.030607238836121237,
            -0.03860427244983816,
            0.034371911329564714,
            -0.038435958110326726,
            0.09781948247425905,
            -0.08339980286113678,
            -0.053866971688915084,
            -0.16257155477615817,
            -0.04542172515376852,
            -0.17760817710713658,
            -0.037434646948788806,
            -0.07618648092771985,
            0.04616831861734173,
            -0.10929845524226839,
            -0.09025718616543209,
            -0.10812596517832927,
            -0.06635722347135914,
            -0.0719595846020282,
            0.02878720717149235,
            -0.07997887617293746,
            -0.07245180630309592,
            0.02612160533840088,
            -0.10851372647711205,
            -0.07779250384798705,
            0.05420317125044451,
            0.054705658270976495,
            -0.02258963768197533,
            0.09411230096305585,
            -0.1504493364633289,
            -0.0007169897389586563,
            -0.14871613774624062,
            -0.0015045940756354985,
            -0.034805084222903175,
            -0.046201766766538414,
            -0.07074847034624852,
            -0.11206099131825487,
            -0.019356392416151738,
            -0.15906967382072493,
            -0.05706694017391797,
            -0.08953146086018839,
            -0.06068286741726128,
            -0.07223922897129074,
            0.01217905549714543,
            0.1108070148847084,
            -0.052905817574648864,
            -0.08406321726823748,
            -0.05245809237318444,
            -0.1612340068189311,
            -0.17731349477308853,
            0.017847929841291684,
            0.059020353570145005,
            -0.013302057974611422,
            -0.1348577472392245,
            -0.016793281175318118,
            -0.07678467146732364,
            -0.22288507478282732,
            -0.1472848636936193,
            -0.00972409416300548,
            -0.07137151032729898,
            -0.16224524692604875
          ]
        },
        {
          "sx": 5,
          "sy": 5,
          "depth": 8,
          "w": [
            0.027873157470294955,
            -0.08827209424974053,
            0.06168344953831235,
            -0.05963474312858588,
            0.02329469977166054,
            0.045947345590019964,
            -0.04705508912072493,
            0.0056762360830166555,
            -0.0231162757142266,
            0.017608326526931332,
            -0.13042444247362758,
            -0.141213321145564,
            0.021062927358489594,
            -0.0503001438616597,
            0.11462117299413635,
            -0.007079701597361717,
            -0.15224740834862463,
            -0.009322803639126525,
            -0.0602558715481274,
            -0.02269057896834918,
            -0.011035940192547443,
            0.06965458805653002,
            0.06731307811218966,
            0.000981247362568409,
            -0.1144462212987934,
            -0.17442157851356843,
            0.06298553661950332,
            0.13069784479521282,
            -0.06637315512541223,
            -0.017359250382677202,
            0.09285071395782477,
            0.033122502212544314,
            -0.03218229713058994,
            0.0683964227366095,
            0.15398208832616744,
            -0.07716385905453985,
            -0.017983745017621594,
            -0.03194043332158308,
            0.0710606833584984,
            -0.023199879147676204,
            -0.011799098142577406,
            -0.008181780578766926,
            0.0049908891183835895,
            -0.03907147724311006,
            0.0036065694798322273,
            -0.039929687555683165,
            -0.054279715491261614,
            -0.041858154192985664,
            -0.09770044386825584,
            -0.0924066681351882,
            0.02265222815272647,
            -0.03777528971209076,
            0.08834694977909939,
            -0.03031974565591153,
            0.1011874925888661,
            -0.04418484727236661,
            0.06858594769921997,
            0.003221472816869295,
            -0.06700530478579082,
            -0.06491007378402333,
            -0.06246328317121304,
            -0.05694394152310456,
            0.1418490398271594,
            -0.06634036889168625,
            -0.005521606738264096,
            -0.08506702279160465,
            0.05608113670327995,
            -0.09721894947101545,
            0.023321589528941918,
            0.11478098595805206,
            -0.07428126478224852,
            -0.1003341625665666,
            -0.17131199011356107,
            0.050022100280535824,
            0.1423309988240511,
            -0.0033892778974702383,
            -0.027754885718411264,
            -0.05697486959362796,
            -0.05685072151428534,
            -0.12933009599962758,
            0.10519438895695891,
            -0.007619530006527256,
            -0.06423424033577789,
            -0.06479570432162413,
            -0.004359574825252352,
            0.002281049513573112,
            -0.005892791778759672,
            0.09884636515270055,
            -0.05525991649193084,
            0.020675480490511614,
            0.02550276963121208,
            0.02051945583227465,
            0.01755044368712766,
            0.067867512055095,
            -0.011579165090388014,
            0.09842606622323503,
            -0.07509809990574212,
            -0.13015298205621198,
            0.07411723862772644,
            0.04700537640702615,
            -0.0718009906195137,
            0.05792739562970802,
            -0.13072770059616898,
            -0.110041048246844,
            0.011292780648493277,
            -0.11279247027408901,
            -0.08492349707557525,
            -0.04176043392465667,
            0.10911160702961224,
            0.08546392287121683,
            -0.040749504109625655,
            -0.19756550169251855,
            -0.010528103093950447,
            0.1586096979730205,
            0.031642573278863544,
            0.0053394463487549115,
            -0.009910981534234508,
            -0.004007270186578154,
            0.08942272949124112,
            -0.09187743006674558,
            0.06299012809684894,
            0.006317136380404026,
            -0.15893062646284,
            0.059730293887936874,
            -0.13666436331624382,
            0.10335824844669518,
            -0.026029152370580403,
            0.18509701888164917,
            0.023775321059734032,
            0.22218787019781597,
            -0.04705856897320341,
            -0.15174232204422097,
            0.1419827638145782,
            -0.037517186234636374,
            -0.07106172994695865,
            0.11165884503869855,
            -0.02407685779220246,
            0.032806559904165804,
            -0.16336956375129966,
            -0.11228587927624202,
            0.025163731440187173,
            -0.020263144453167643,
            0.18165613364884817,
            -0.11386806173767515,
            -0.17846800202871335,
            -0.21582021614039013,
            -0.13057922526466467,
            0.021990453719260623,
            -0.08246295043443398,
            -0.049505742289107424,
            0.00009287375971985162,
            -0.131387968055366,
            -0.004468637230777979,
            -0.027208181272727443,
            0.05097444237239931,
            -0.12433412531091285,
            -0.06592948197374482,
            -0.022034212111580197,
            -0.040535137514044514,
            -0.23494409036863215,
            0.003980127597058219,
            0.16996237975429104,
            0.045507417657743916,
            0.0367296616365106,
            0.046572204028135875,
            -0.06510205900327853,
            0.04703136461571418,
            0.16312466401540993,
            0.10136373781457862,
            0.020599424808009935,
            0.019122788116867125,
            0.038014194378791256,
            0.015124413191087933,
            0.18047925206717855,
            -0.029331815297576714,
            0.1185272678567326,
            0.09847171979933075,
            -0.012364157439064471,
            0.06653369579629596,
            -0.07036309616015024,
            0.029926042376597035,
            0.018822583475093076,
            -0.003383217129871449,
            -0.030657006120874755,
            -0.02366943719483165,
            0.09794644259221429,
            -0.13748485315372627,
            -0.03843098658971064,
            -0.05102088642760697,
            0.07993379919726168,
            0.14946489560799767,
            0.1712208568648261,
            -0.04701102392839004,
            0.04845300840359408,
            -0.05104648779032365,
            -0.004522511877644147,
            0.09691399560344244,
            0.1056460222427704,
            0.02275947977008721,
            0.009924160020668085
          ]
        },
        {
          "sx": 5,
          "sy": 5,
          "depth": 8,
          "w": [
            -0.16526145735922912,
            0.06444766595029254,
            0.058674173815858106,
            0.09697054698037232,
            -0.0002996447848801055,
            -0.24266268827734064,
            0.03406324732662964,
            0.058330844201496146,
            -0.1703310435559153,
            0.05371989054366563,
            -0.12067152889958564,
            0.022219929503171462,
            -0.04217121900456969,
            -0.023435729748643025,
            -0.023766238506398765,
            -0.23748848364729017,
            -0.03248964018652478,
            -0.025494200242808226,
            -0.02693511332997434,
            -0.058002677432262596,
            0.012907822918116114,
            -0.0907676984525282,
            -0.019405945767663746,
            -0.016151782687953576,
            0.04552650660707073,
            -0.015642272385264364,
            -0.0007858499547470295,
            -0.05796424718525551,
            -0.02137165767524566,
            -0.0328106566433392,
            -0.08820119873092803,
            -0.12741468543372236,
            -0.0076886619812989235,
            -0.01788041603660228,
            0.08635282270571981,
            -0.07974231820866579,
            -0.037348370540562184,
            0.011249605165887085,
            -0.08197961576829199,
            -0.13972629108510387,
            -0.009798068704188439,
            -0.08450777171993602,
            0.0780644549607633,
            0.1590740992584688,
            0.05159982740079711,
            0.10205197170730872,
            -0.08594128641410806,
            -0.07111665062767,
            -0.017288522461208728,
            -0.027463005312395886,
            -0.009430698151509573,
            0.03278005351021926,
            0.015058935697521343,
            -0.07153495361265294,
            0.1285709953610396,
            0.08195059632024089,
            -0.08409391555194146,
            -0.05064818743079304,
            -0.11875183048265185,
            -0.02267912041407063,
            -0.1118212900132141,
            -0.07305794309931983,
            -0.08287558723248928,
            -0.0726775526958389,
            -0.15535874069016964,
            0.026806255542261646,
            0.06884247956644296,
            -0.10430821861049751,
            -0.011436155198190596,
            0.06012106786705653,
            0.032900193099785965,
            0.026344261032533012,
            0.013584538131650767,
            -0.0035348603483999616,
            -0.01586326094488422,
            -0.08120196442414625,
            0.02098377443466054,
            0.09017766170147924,
            0.006918104399247761,
            -0.012416558742735938,
            0.007899885327251475,
            0.12994271489276735,
            -0.09234797394695884,
            0.04570922250022046,
            -0.07015674513752893,
            0.08738463411478023,
            -0.014599066068867643,
            0.097629244855238,
            -0.08360556146477618,
            0.010850550553340863,
            -0.043241446738010454,
            0.010864580128649926,
            -0.04225462618353489,
            -0.03839714286473327,
            -0.03533883466580722,
            0.013756801884133158,
            0.029095358114000165,
            -0.03268886263717638,
            -0.06808185367763184,
            -0.033014521376603885,
            0.05697032892871372,
            0.021343116475778516,
            -0.009328520900648684,
            -0.01884986012842777,
            -0.060103716221165254,
            -0.11519628728572909,
            -0.11675367672363786,
            0.15419125545205972,
            0.05716701440736057,
            -0.024952578434271698,
            0.10597946035693337,
            0.012843824283492358,
            -0.007811944324374241,
            -0.025921052403584374,
            0.02279628991455294,
            0.10049356645539617,
            0.020204582512494833,
            -0.03102973746936726,
            0.029122515665346734,
            -0.21104625981890843,
            -0.014443905223958038,
            -0.01018197401018876,
            -0.11660913225631558,
            -0.018391581625260698,
            0.041280801970292325,
            -0.11894020382812333,
            0.10206226430702187,
            0.016761011611810085,
            0.05157489716936375,
            -0.005440660256067835,
            -0.027632597813937284,
            -0.012574718205200315,
            -0.006700023659339362,
            -0.005879578133383259,
            0.0955424096035424,
            0.08458114291051046,
            0.02075337510402657,
            0.009764165183279565,
            -0.021850516440796646,
            0.12640688442363057,
            0.010912982476943127,
            0.0391726043249811,
            0.029385338353006257,
            -0.03367818432359746,
            0.024263353928218802,
            -0.025684087742776276,
            0.018144583404213096,
            0.03419061539360219,
            -0.024206271110562425,
            0.11397213515396407,
            -0.09303070562498088,
            -0.011660416489592458,
            -0.0014521888364810655,
            -0.002798590055772009,
            -0.11901321716844758,
            0.04417414104873825,
            0.10096064055956873,
            -0.14367896607175437,
            0.02206056633210178,
            0.10522812731092228,
            0.1308365934379057,
            0.035514492188636046,
            0.060080529760611956,
            0.04229919496347429,
            0.1248384223218882,
            0.11379354970531881,
            -0.13845152812000325,
            0.022622046716080795,
            -0.04897849551259213,
            -0.06253478856125111,
            0.081032105086099,
            0.02455987098787843,
            -0.02972245320754277,
            0.04874377785241019,
            0.02057164137719807,
            -0.07135807594525641,
            0.01978971130321127,
            0.04842315088730221,
            0.02837677914203365,
            0.03761278009303434,
            -0.05208852897144623,
            0.05192680949504062,
            0.046155374080219955,
            0.05650268719030462,
            0.1033041466932373,
            0.05508592832082917,
            0.011216136278865979,
            0.025098955286894056,
            0.12300751657738107,
            -0.02442884165914184,
            -0.19021700640078334,
            0.024114991070333488,
            -0.0051505527024235,
            -0.09235046951149138,
            -0.02139407745594619,
            -0.06233012065686053,
            0.10876207070415088,
            -0.1458533019439944,
            -0.143956906916528,
            0.06558770785372442
          ]
        },
        {
          "sx": 5,
          "sy": 5,
          "depth": 8,
          "w": [
            -0.07963691495774693,
            -0.025241348188344365,
            -0.055896603618487195,
            -0.06328990074471855,
            0.07158060954984237,
            0.06318322740914943,
            -0.047340796202737796,
            -0.07097252836418874,
            -0.07254784575704364,
            -0.020794264091214446,
            0.013660002625064768,
            -0.014794929044540531,
            -0.09406439299891439,
            0.07834012754655495,
            -0.01058823375978418,
            0.005651761151333559,
            0.2125449729818497,
            0.002677436933894681,
            -0.018081613277808998,
            -0.1134402075959551,
            0.08270949195415753,
            0.015328436897298025,
            -0.160913819854968,
            0.12062418890116365,
            -0.07306928267562988,
            0.0063035180452927254,
            0.026607437594529524,
            0.026833985037186994,
            -0.0880612123245331,
            -0.05479970211459886,
            -0.010441654864465634,
            -0.09315097595618997,
            -0.04643561840660597,
            -0.0682634267856865,
            -0.03926262454732205,
            0.0038695847125719105,
            -0.051317947215646025,
            0.0037060264667884463,
            -0.1628191964367372,
            0.057913918956128796,
            -0.028329971483246476,
            0.12299706361410548,
            -0.10825294977386447,
            -0.004958802943807645,
            0.07679889572582027,
            0.03863154832271402,
            -0.1088313969630918,
            0.02293090677866321,
            -0.0016460309474527958,
            -0.06191335881068632,
            -0.12107216846427715,
            -0.0216074497086673,
            0.20097939181854527,
            -0.07762008330591087,
            -0.09592203792183993,
            0.06521365987494238,
            0.005035992449478619,
            -0.019057953923285787,
            -0.047859645849962384,
            -0.07195893728050555,
            0.08276526531619287,
            0.00559262455359768,
            -0.030151440313143808,
            0.021471754959540575,
            0.033887146944795075,
            -0.06913795772639943,
            0.13785041277518983,
            -0.0432522221360284,
            -0.04552387476280254,
            0.015359879303558529,
            0.0016502148529121193,
            -0.013255351103533645,
            0.011675071532006738,
            0.021010641099636546,
            -0.14036065156618657,
            0.015927128157614514,
            -0.11972699105916598,
            0.14721509893479465,
            0.0069902146591277236,
            -0.012575983784626217,
            -0.016222999905356306,
            -0.008053662125971176,
            0.0072084296689913325,
            0.05236086733775023,
            0.044153694000004025,
            0.008651455087785835,
            0.12570304889365955,
            0.005808267774793055,
            0.20047911700200943,
            -0.12822710894737308,
            -0.1551047642659274,
            0.06265151305122739,
            -0.03387374785719843,
            0.018222623354425347,
            -0.04154076555155302,
            0.05007976046332508,
            -0.1667395246965917,
            -0.02064382745299281,
            -0.11055286255170678,
            0.04216466109677117,
            -0.06300606233722848,
            0.03927444173686384,
            0.05792529879721442,
            -0.046011974803145686,
            0.07336596182817115,
            -0.003682328757472108,
            0.05849114025770781,
            -0.15338387598798572,
            -0.04071544547834502,
            0.060641407006198696,
            0.005819319203976621,
            0.01678687182721802,
            0.046464919288945215,
            0.12374262373860508,
            0.01816726824214356,
            -0.01290531089232646,
            -0.05995044353548417,
            0.060703277759436,
            -0.10851265434519547,
            -0.039079423222980636,
            -0.05899609169712337,
            0.10588462590119144,
            -0.04588248642121168,
            0.019884353851043174,
            0.06883548391940385,
            -0.15696093948187642,
            -0.028559326008688452,
            -0.038283781348756284,
            0.06467028007392586,
            -0.0225878686974464,
            0.0555397493847528,
            0.06072767210534548,
            0.0723051390707781,
            -0.02311685687083717,
            -0.047858978041223424,
            0.10316380605936441,
            0.16692817115900535,
            0.03170446743206778,
            0.011196597534489318,
            0.02842959867603595,
            -0.08321323359991498,
            0.06965269022550367,
            -0.05341241637025612,
            0.1894319651460053,
            0.0810935119149888,
            -0.08569895056890058,
            -0.05951409977577909,
            -0.052298915767514303,
            0.09290406062677854,
            -0.010547312310369978,
            -0.19450838263792977,
            0.09016497777385332,
            0.024537373333580227,
            0.08228873201193884,
            -0.0767465571594324,
            0.005427908882013714,
            0.03927838009259028,
            -0.029731149075205143,
            -0.03759807587868619,
            0.16273883576982626,
            -0.08575781013194887,
            0.10968836914533958,
            0.14257453578950913,
            -0.19047388039480775,
            -0.0686231443388641,
            -0.045477287516086366,
            0.047190958030629115,
            -0.05956747632170533,
            -0.005490770549558518,
            0.10231297984598853,
            0.06341241756833026,
            -0.012977742544049127,
            0.07233799242278752,
            0.02635734914320694,
            -0.039182428148118634,
            0.15862155554850918,
            0.04524406843809765,
            -0.00921121957928316,
            0.15910011826868298,
            -0.008172920794249463,
            0.05468838999246245,
            -0.06651614174094256,
            -0.04657622814652733,
            0.0906414174349137,
            -0.061898796092558495,
            -0.04585291876083854,
            -0.06603675825758058,
            0.023474972266755927,
            0.06401647819916684,
            0.07750307935676022,
            0.09324117570814079,
            -0.13979151817661936,
            0.039687514604875865,
            -0.0267760199591907,
            -0.05511021170163716,
            0.11203443270448539,
            0.12894600639232717,
            0.0036768444734076107,
            -0.06505725406414055,
            0.08430056569393675
          ]
        },
        {
          "sx": 5,
          "sy": 5,
          "depth": 8,
          "w": [
            0.028104606132004894,
            -0.03868524567791765,
            -0.1554638914596864,
            -0.10241303863876726,
            0.0158588491025507,
            0.08012983864697414,
            0.045585907889758734,
            0.07363723573555914,
            -0.03412127769540593,
            0.011333262884747668,
            -0.08752615040387295,
            0.030771529778831325,
            -0.14068665526823435,
            -0.06622923670069716,
            0.060460644145837315,
            -0.028116143338494128,
            -0.13790889112699542,
            0.015749644795422166,
            0.03158933512596263,
            0.00020458576662076678,
            -0.13594453410861476,
            -0.065238502315783,
            0.015022754875306625,
            0.05749356211215788,
            0.02210863339645638,
            0.030806061507442507,
            0.027346331185657803,
            -0.02559684748781147,
            0.06810796307037334,
            0.04957946020265562,
            0.01673042200453373,
            0.004919574844072991,
            -0.09167856361117732,
            0.11099338010366816,
            -0.05558088119530706,
            -0.11299494526478486,
            -0.03889333280295726,
            -0.04699886954727137,
            0.06714995364430423,
            -0.1316923801806983,
            0.02033082657573269,
            -0.1299370203422085,
            0.02844906676111939,
            -0.1437938966680979,
            -0.03591375392761327,
            0.07588096899647781,
            -0.03577014848303867,
            0.0759996824287395,
            0.011553533490768483,
            0.023639853158997814,
            -0.0021638999290921846,
            0.12271237712384762,
            -0.02739834997240955,
            0.1541873939745282,
